{"learner":{"attributes":{"scikit_learn":"{\"_estimator_type\": \"classifier\"}"},"feature_names":["Age","BMI","BloodPressure","DiabetesPedigreeFunction","Glucose","Insulin","Pregnancies","SkinThickness"],"feature_types":["int","float","int","float","int","int","int","int"],"gradient_booster":{"model":{"gbtree_model_param":{"num_parallel_tree":"1","num_trees":"100"},"iteration_indptr":[0,1,2,3,4,5,6,7,8,9,10,11,12,13,14,15,16,17,18,19,20,21,22,23,24,25,26,27,28,29,30,31,32,33,34,35,36,37,38,39,40,41,42,43,44,45,46,47,48,49,50,51,52,53,54,55,56,57,58,59,60,61,62,63,64,65,66,67,68,69,70,71,72,73,74,75,76,77,78,79,80,81,82,83,84,85,86,87,88,89,90,91,92,93,94,95,96,97,98,99,100],"tree_info":[0,0,0,0,0,0,0,0,0,0,0,0,0,0,0,0,0,0,0,0,0,0,0,0,0,0,0,0,0,0,0,0,0,0,0,0,0,0,0,0,0,0,0,0,0,0,0,0,0,0,0,0,0,0,0,0,0,0,0,0,0,0,0,0,0,0,0,0,0,0,0,0,0,0,0,0,0,0,0,0,0,0,0,0,0,0,0,0,0,0,0,0,0,0,0,0,0,0,0,0],"trees":[{"base_weights":[-2.0086223E-2,-6.795388E-1,1.1190666E0,-1.1811624E0,-1.0281509E-2,-1.6387218E-1,1.5908966E0,-1.4552002E-1,-7.83039E-2,-1.2515523E-1,3.3188563E-2,-8.314535E-2,7.7805884E-2,1.07686184E-1,2.1555458E-1],"categories":[],"categories_nodes":[],"categories_segments":[],"categories_sizes":[],"default_left":[0,0,0,0,0,0,0,0,0,0,0,0,0,0,0],"id":0,"left_children":[1,3,5,7,9,11,13,-1,-1,-1,-1,-1,-1,-1,-1],"loss_changes":[1.066543E2,3.016919E1,3.1774994E1,4.4658585E0,1.7202097E1,1.001949E1,8.753616E0,0E0,0E0,0E0,0E0,0E0,0E0,0E0,0E0],"parents":[2147483647,0,0,1,1,2,2,3,3,4,4,5,5,6,6],"right_children":[2,4,6,8,10,12,14,-1,-1,-1,-1,-1,-1,-1,-1],"split_conditions":[1.28E2,2.9E1,3E1,3.1E1,2.63E1,1.47E2,1.58E2,-1.4552002E-1,-7.83039E-2,-1.2515523E-1,3.3188563E-2,-8.314535E-2,7.7805884E-2,1.07686184E-1,2.1555458E-1],"split_indices":[4,0,1,1,1,4,4,0,0,0,0,0,0,0,0],"split_type":[0,0,0,0,0,0,0,0,0,0,0,0,0,0,0],"sum_hessian":[1.3996301E2,8.890159E1,5.1061424E1,5.0377567E1,3.852402E1,1.3905121E1,3.7156303E1,2.8266146E1,2.2111422E1,7.750395E0,3.0773626E1,8.206301E0,5.6988196E0,2.0971657E1,1.6184649E1],"tree_param":{"num_deleted":"0","num_feature":"8","num_nodes":"15","size_leaf_vector":"1"}},{"base_weights":[-2.0168448E-2,-6.297676E-1,9.835612E-1,-1.1098596E0,-1.2188203E-2,-1.4963837E-1,1.3820962E0,-1.3803023E-1,-7.2592564E-2,-1.1847029E-1,2.9681114E-2,-8.3849505E-2,6.362168E-2,7.0353605E-2,1.6703781E-1],"categories":[],"categories_nodes":[],"categories_segments":[],"categories_sizes":[],"default_left":[0,0,0,0,0,0,0,0,0,0,0,0,0,0,0],"id":1,"left_children":[1,3,5,7,9,11,13,-1,-1,-1,-1,-1,-1,-1,-1],"loss_changes":[8.659341E1,2.6086166E1,2.4360397E1,4.139305E0,1.466706E1,8.554837E0,6.583885E0,0E0,0E0,0E0,0E0,0E0,0E0,0E0,0E0],"parents":[2147483647,0,0,1,1,2,2,3,3,4,4,5,5,6,6],"right_children":[2,4,6,8,10,12,14,-1,-1,-1,-1,-1,-1,-1,-1],"split_conditions":[1.28E2,2.9E1,3E1,3.1E1,2.63E1,1.46E2,3.05E-1,-1.3803023E-1,-7.2592564E-2,-1.1847029E-1,2.9681114E-2,-8.3849505E-2,6.362168E-2,7.0353605E-2,1.6703781E-1],"split_indices":[4,0,1,1,1,4,3,0,0,0,0,0,0,0,0],"split_type":[0,0,0,0,0,0,0,0,0,0,0,0,0,0,0],"sum_hessian":[1.395096E2,8.702745E1,5.2482155E1,4.85155E1,3.8511948E1,1.3817582E1,3.8664574E1,2.6942251E1,2.157325E1,7.4413495E0,3.10706E1,7.3275185E0,6.4900637E0,1.2554394E1,2.6110178E1],"tree_param":{"num_deleted":"0","num_feature":"8","num_nodes":"15","size_leaf_vector":"1"}},{"base_weights":[-2.0537896E-2,-5.8523864E-1,8.7302953E-1,-1.0467913E0,-1.3819601E-2,-1.3787177E-1,1.2172517E0,-1.3174403E-1,-6.734728E-2,-1.0040086E-1,3.2439854E-2,-7.859365E-2,5.7255693E-2,7.954068E-2,1.6819039E-1],"categories":[],"categories_nodes":[],"categories_segments":[],"categories_sizes":[],"default_left":[0,0,0,0,0,0,0,0,0,0,0,0,0,0,0],"id":2,"left_children":[1,3,5,7,9,11,13,-1,-1,-1,-1,-1,-1,-1,-1],"loss_changes":[7.0838234E1,2.266736E1,1.908796E1,3.918167E0,1.3534226E1,7.2223587E0,6.632511E0,0E0,0E0,0E0,0E0,0E0,0E0,0E0,0E0],"parents":[2147483647,0,0,1,1,2,2,3,3,4,4,5,5,6,6],"right_children":[2,4,6,8,10,12,14,-1,-1,-1,-1,-1,-1,-1,-1],"split_conditions":[1.28E2,2.9E1,3E1,3.1E1,9.5E1,1.46E2,1.58E2,-1.3174403E-1,-6.734728E-2,-1.0040086E-1,3.2439854E-2,-7.859365E-2,5.7255693E-2,7.954068E-2,1.6819039E-1],"split_indices":[4,0,1,1,4,4,4,0,0,0,0,0,0,0,0],"split_type":[0,0,0,0,0,0,0,0,0,0,0,0,0,0,0],"sum_hessian":[1.3837286E2,8.50007E1,5.337217E1,4.656047E1,3.844023E1,1.3709624E1,3.9662544E1,2.5525764E1,2.1034706E1,9.285852E0,2.9154377E1,7.113912E0,6.595712E0,2.2210274E1,1.745227E1],"tree_param":{"num_deleted":"0","num_feature":"8","num_nodes":"15","size_leaf_vector":"1"}},{"base_weights":[-2.029573E-2,-5.44091E-1,7.8297955E-1,-9.9007326E-1,-1.46499965E-2,-1.2737794E-1,1.0861034E0,-1.2637757E-1,-6.250055E-2,-1.1239766E-1,2.6355235E-2,-6.874946E-2,5.793012E-2,7.6656975E-2,1.6091345E-1],"categories":[],"categories_nodes":[],"categories_segments":[],"categories_sizes":[],"default_left":[0,0,0,0,0,0,0,0,0,0,0,0,0,0,0],"id":3,"left_children":[1,3,5,7,9,11,13,-1,-1,-1,-1,-1,-1,-1,-1],"loss_changes":[5.839652E1,1.9816666E1,1.5258034E1,3.763649E0,1.246056E1,6.170035E0,5.6536636E0,0E0,0E0,0E0,0E0,0E0,0E0,0E0,0E0],"parents":[2147483647,0,0,1,1,2,2,3,3,4,4,5,5,6,6],"right_children":[2,4,6,8,10,12,14,-1,-1,-1,-1,-1,-1,-1,-1],"split_conditions":[1.28E2,2.9E1,3E1,3.1E1,2.63E1,1.47E2,1.66E2,-1.2637757E-1,-6.250055E-2,-1.1239766E-1,2.6355235E-2,-6.874946E-2,5.793012E-2,7.6656975E-2,1.6091345E-1],"split_indices":[4,0,1,1,1,4,4,0,0,0,0,0,0,0,0],"split_type":[0,0,0,0,0,0,0,0,0,0,0,0,0,0,0],"sum_hessian":[1.367784E2,8.298722E1,5.379118E1,4.457163E1,3.8415592E1,1.3581699E1,4.020948E1,2.4066494E1,2.0505135E1,7.092849E0,3.1322744E1,7.5916643E0,5.990035E0,2.6491028E1,1.3718454E1],"tree_param":{"num_deleted":"0","num_feature":"8","num_nodes":"15","size_leaf_vector":"1"}},{"base_weights":[-2.0000465E-2,-5.071574E-1,7.072585E-1,-8.8561064E-1,5.6402028E-2,3.1737334E-1,1.3157742E0,-1.0095537E-1,-1.813751E-2,-9.053681E-2,4.0446892E-2,-4.4572342E-2,6.4552665E-2,1.4100398E-1,-1.1743332E-2],"categories":[],"categories_nodes":[],"categories_segments":[],"categories_sizes":[],"default_left":[0,0,0,0,0,0,0,0,0,0,0,0,0,0,0],"id":4,"left_children":[1,3,5,7,9,11,13,-1,-1,-1,-1,-1,-1,-1,-1],"loss_changes":[4.846149E1,1.7515633E1,1.2603262E1,4.0983047E0,1.1694354E1,8.99408E0,3.0181503E0,0E0,0E0,0E0,0E0,0E0,0E0,0E0,0E0],"parents":[2147483647,0,0,1,1,2,2,3,3,4,4,5,5,6,6],"right_children":[2,4,6,8,10,12,14,-1,-1,-1,-1,-1,-1,-1,-1],"split_conditions":[1.28E2,3.1E1,1.6E2,6.74E-1,9.5E1,3E1,6E1,-1.0095537E-1,-1.813751E-2,-9.053681E-2,4.0446892E-2,-4.4572342E-2,6.4552665E-2,1.4100398E-1,-1.1743332E-2],"split_indices":[4,0,4,3,4,1,0,0,0,0,0,0,0,0,0],"split_type":[0,0,0,0,0,0,0,0,0,0,0,0,0,0,0],"sum_hessian":[1.3477266E2,8.089051E1,5.388214E1,4.8050903E1,3.2839607E1,3.3768013E1,2.0114128E1,4.049107E1,7.5598326E0,8.301094E0,2.4538515E1,1.004675E1,2.3721264E1,1.8887983E1,1.2261443E0],"tree_param":{"num_deleted":"0","num_feature":"8","num_nodes":"15","size_leaf_vector":"1"}},{"base_weights":[-1.9300459E-2,-7.0620745E-1,4.2258576E-1,-8.9532197E-1,1.6851951E-1,1.18303664E-1,1.1329361E0,-1.00806855E-1,2.1680908E-2,-1.0482236E-1,6.653863E-2,-9.198086E-2,3.156679E-2,1.2220015E-1,-2.9706148E-2],"categories":[],"categories_nodes":[],"categories_segments":[],"categories_sizes":[],"default_left":[0,0,0,0,0,0,0,0,0,0,0,0,0,0,0],"id":5,"left_children":[1,3,5,7,9,11,13,-1,-1,-1,-1,-1,-1,-1,-1],"loss_changes":[4.088097E1,8.870943E0,1.7587048E1,5.6731415E0,6.8713856E0,1.2279411E1,3.4796581E0,0E0,0E0,0E0,0E0,0E0,0E0,0E0,0E0],"parents":[2147483647,0,0,1,1,2,2,3,3,4,4,5,5,6,6],"right_children":[2,4,6,8,10,12,14,-1,-1,-1,-1,-1,-1,-1,-1],"split_conditions":[1.12E2,7E0,1.55E2,4.1E1,2.38E-1,2.64E1,5.43E2,-1.00806855E-1,2.1680908E-2,-1.0482236E-1,6.653863E-2,-9.198086E-2,3.156679E-2,1.2220015E-1,-2.9706148E-2],"split_indices":[4,6,4,0,3,1,5,0,0,0,0,0,0,0,0],"split_type":[0,0,0,0,0,0,0,0,0,0,0,0,0,0,0],"sum_hessian":[1.3269981E2,5.1713543E1,8.098627E1,4.250129E1,9.212253E0,5.7515682E1,2.3470583E1,3.8674118E1,3.8271694E0,2.349371E0,6.862881E0,8.603234E0,4.891245E1,2.2231388E1,1.2391962E0],"tree_param":{"num_deleted":"0","num_feature":"8","num_nodes":"15","size_leaf_vector":"1"}},{"base_weights":[-1.9153196E-2,-6.622833E-1,3.8152504E-1,-8.725225E-1,8.645692E-2,1.05118655E-1,1.0311955E0,-1.16942815E-1,-5.599016E-2,-3.058509E-2,1.5814649E-1,-3.3383247E-2,5.107932E-2,1.1139764E-1,-2.8033694E-2],"categories":[],"categories_nodes":[],"categories_segments":[],"categories_sizes":[],"default_left":[0,0,0,0,0,0,0,0,0,0,0,0,0,0,0],"id":6,"left_children":[1,3,5,7,9,11,13,-1,-1,-1,-1,-1,-1,-1,-1],"loss_changes":[3.41899E1,8.090929E0,1.4576925E1,3.0437489E0,7.5645866E0,1.0584838E1,2.9500065E0,0E0,0E0,0E0,0E0,0E0,0E0,0E0,0E0],"parents":[2147483647,0,0,1,1,2,2,3,3,4,4,5,5,6,6],"right_children":[2,4,6,8,10,12,14,-1,-1,-1,-1,-1,-1,-1,-1],"split_conditions":[1.12E2,6.4E-1,1.55E2,2.6E1,8E0,3.1E1,5.43E2,-1.16942815E-1,-5.599016E-2,-3.058509E-2,1.5814649E-1,-3.3383247E-2,5.107932E-2,1.1139764E-1,-2.8033694E-2],"split_indices":[4,3,4,0,6,0,5,0,0,0,0,0,0,0,0],"split_type":[0,0,0,0,0,0,0,0,0,0,0,0,0,0,0],"sum_hessian":[1.3069875E2,4.9919643E1,8.0779106E1,3.8846573E1,1.107307E1,5.7483986E1,2.3295122E1,1.8518375E1,2.03282E1,9.401439E0,1.6716306E0,2.7694674E1,2.9789312E1,2.205377E1,1.2413524E0],"tree_param":{"num_deleted":"0","num_feature":"8","num_nodes":"15","size_leaf_vector":"1"}},{"base_weights":[-1.7731085E-2,-6.195642E-1,3.4587052E-1,-8.255574E-1,8.8497624E-2,-2.7829993E-1,5.9972095E-1,-1.13197565E-1,-5.175346E-2,-2.8181767E-2,1.456521E-1,-1.0363593E-1,4.926413E-3,1.5171093E-2,9.501579E-2],"categories":[],"categories_nodes":[],"categories_segments":[],"categories_sizes":[],"default_left":[0,0,0,0,0,0,0,0,0,0,0,0,0,0,0],"id":7,"left_children":[1,3,5,7,9,11,13,-1,-1,-1,-1,-1,-1,-1,-1],"loss_changes":[2.8594614E1,7.2496185E0,1.3078601E1,3.0206966E0,6.485459E0,6.070918E0,9.000523E0,0E0,0E0,0E0,0E0,0E0,0E0,0E0,0E0],"parents":[2147483647,0,0,1,1,2,2,3,3,4,4,5,5,6,6],"right_children":[2,4,6,8,10,12,14,-1,-1,-1,-1,-1,-1,-1,-1],"split_conditions":[1.12E2,6.4E-1,2.99E1,2.6E1,8E0,2.7E1,3.1E1,-1.13197565E-1,-5.175346E-2,-2.8181767E-2,1.456521E-1,-1.0363593E-1,4.926413E-3,1.5171093E-2,9.501579E-2],"split_indices":[4,3,1,0,6,0,0,0,0,0,0,0,0,0,0],"split_type":[0,0,0,0,0,0,0,0,0,0,0,0,0,0,0],"sum_hessian":[1.2869269E2,4.8203064E1,8.048963E1,3.721138E1,1.0991681E1,2.3243042E1,5.7246586E1,1.73133E1,1.9898083E1,9.274995E0,1.7166862E0,6.360207E0,1.6882835E1,2.5754326E1,3.149226E1],"tree_param":{"num_deleted":"0","num_feature":"8","num_nodes":"15","size_leaf_vector":"1"}},{"base_weights":[-1.722765E-2,-3.8924262E-1,4.9838123E-1,-1.0859855E0,-1.5955868E-1,2.3985365E-1,1.113776E0,-1.1301786E-1,-1.8134767E-2,-6.374502E-2,2.3349172E-2,-5.435906E-2,4.600833E-2,1.20925285E-1,-3.0762178E-3],"categories":[],"categories_nodes":[],"categories_segments":[],"categories_sizes":[],"default_left":[0,0,0,0,0,0,0,0,0,0,0,0,0,0,0],"id":8,"left_children":[1,3,5,7,9,11,13,-1,-1,-1,-1,-1,-1,-1,-1],"loss_changes":[2.4685047E1,1.178577E1,8.316337E0,5.288601E-1,1.0925831E1,7.02491E0,1.7512817E0,0E0,0E0,0E0,0E0,0E0,0E0,0E0,0E0],"parents":[2147483647,0,0,1,1,2,2,3,3,4,4,5,5,6,6],"right_children":[2,4,6,8,10,12,14,-1,-1,-1,-1,-1,-1,-1,-1],"split_conditions":[1.28E2,2.65E1,1.67E2,8.4E1,2.9E1,2.5E1,1.441E0,-1.1301786E-1,-1.8134767E-2,-6.374502E-2,2.3349172E-2,-5.435906E-2,4.600833E-2,1.20925285E-1,-3.0762178E-3],"split_indices":[4,1,4,2,0,0,3,0,0,0,0,0,0,0,0],"split_type":[0,0,0,0,0,0,0,0,0,0,0,0,0,0,0],"sum_hessian":[1.2668113E2,7.3729744E1,5.2951385E1,1.7355106E1,5.637464E1,3.8265705E1,1.468568E1,1.6309065E1,1.0460414E0,2.516089E1,3.121375E1,8.074218E0,3.0191486E1,1.3502745E1,1.1829352E0],"tree_param":{"num_deleted":"0","num_feature":"8","num_nodes":"15","size_leaf_vector":"1"}},{"base_weights":[-1.6854154E-2,-8.169446E-1,1.9611867E-1,-1.0721856E0,-1.23656675E-1,-5.192874E-1,3.91099E-1,-1.1417683E-1,-2.8801728E-2,-5.983589E-2,6.853886E-2,-6.67782E-2,6.9958605E-2,-1.3363356E-2,5.934148E-2],"categories":[],"categories_nodes":[],"categories_segments":[],"categories_sizes":[],"default_left":[0,0,0,0,0,0,0,0,0,0,0,0,0,0,0],"id":9,"left_children":[1,3,5,7,9,11,13,-1,-1,-1,-1,-1,-1,-1,-1],"loss_changes":[2.1543331E1,4.5699806E0,1.4140213E1,7.238884E-1,3.5906355E0,4.4180703E0,8.475213E0,0E0,0E0,0E0,0E0,0E0,0E0,0E0,0E0],"parents":[2147483647,0,0,1,1,2,2,3,3,4,4,5,5,6,6],"right_children":[2,4,6,8,10,12,14,-1,-1,-1,-1,-1,-1,-1,-1],"split_conditions":[1E2,3.1E1,2.5E1,4.3E1,4.52E-1,1.66E2,2.97E1,-1.1417683E-1,-2.8801728E-2,-5.983589E-2,6.853886E-2,-6.67782E-2,6.9958605E-2,-1.3363356E-2,5.934148E-2],"split_indices":[4,7,0,0,3,4,1,0,0,0,0,0,0,0,0],"split_type":[0,0,0,0,0,0,0,0,0,0,0,0,0,0,0],"sum_hessian":[1.24489586E2,2.5574835E1,9.891475E1,1.8293407E1,7.281426E0,2.0828655E1,7.80861E1,1.6383595E1,1.9098134E0,4.75303E0,2.5283966E0,1.8969719E1,1.8589361E0,2.182349E1,5.6262604E1],"tree_param":{"num_deleted":"0","num_feature":"8","num_nodes":"15","size_leaf_vector":"1"}},{"base_weights":[-1.6798312E-2,-2.0291609E-1,8.0484515E-1,-9.7846824E-1,-1.8001892E-2,8.860703E-1,-3.5503294E-2,-1.08121514E-1,-4.550094E-2,-3.84218E-2,3.356399E-2,2.7792463E-2,1.1927634E-1],"categories":[],"categories_nodes":[],"categories_segments":[],"categories_sizes":[],"default_left":[0,0,0,0,0,0,0,0,0,0,0,0,0],"id":10,"left_children":[1,3,5,7,9,11,-1,-1,-1,-1,-1,-1,-1],"loss_changes":[1.9082623E1,1.456267E1,2.4861708E0,5.597763E-1,1.0892886E1,3.7396774E0,0E0,0E0,0E0,0E0,0E0,0E0,0E0],"parents":[2147483647,0,0,1,1,2,2,3,3,4,4,5,5],"right_children":[2,4,6,8,10,12,-1,-1,-1,-1,-1,-1,-1],"split_conditions":[1.55E2,2.64E1,5.43E2,1.25E2,3.1E1,3.05E-1,-3.5503294E-2,-1.08121514E-1,-4.550094E-2,-3.84218E-2,3.356399E-2,2.7792463E-2,1.1927634E-1],"split_indices":[4,1,5,4,0,3,0,0,0,0,0,0,0],"split_type":[0,0,0,0,0,0,0,0,0,0,0,0,0],"sum_hessian":[1.2271831E2,1.0066811E2,2.2050194E1,1.8554955E1,8.211316E1,2.0827715E1,1.2224787E0,1.4619794E1,3.9351614E0,4.0296936E1,4.1816223E1,7.621379E0,1.3206337E1],"tree_param":{"num_deleted":"0","num_feature":"8","num_nodes":"13","size_leaf_vector":"1"}},{"base_weights":[-1.6120708E-2,-6.007888E-1,2.3057662E-1,-7.090534E-1,5.7292026E-1,-3.256006E-1,4.2946756E-1,-8.659582E-2,-3.192081E-5,-3.5923757E-2,1.3446344E-1,-9.270575E-2,-6.8423464E-3,2.4014952E-2,9.820928E-2],"categories":[],"categories_nodes":[],"categories_segments":[],"categories_sizes":[],"default_left":[0,0,0,0,0,0,0,0,0,0,0,0,0,0,0],"id":11,"left_children":[1,3,5,7,9,11,13,-1,-1,-1,-1,-1,-1,-1,-1],"loss_changes":[1.7690567E1,5.0299997E0,9.68649E0,3.754095E0,3.0914788E0,3.5408692E0,6.4600477E0,0E0,0E0,0E0,0E0,0E0,0E0,0E0,0E0],"parents":[2147483647,0,0,1,1,2,2,3,3,4,4,5,5,6,6],"right_children":[2,4,6,8,10,12,14,-1,-1,-1,-1,-1,-1,-1,-1],"split_conditions":[1.07E2,1.55E2,2.89E1,3.82E1,7.4E1,2E0,4.2E1,-8.659582E-2,-3.192081E-5,-3.5923757E-2,1.3446344E-1,-9.270575E-2,-6.8423464E-3,2.4014952E-2,9.820928E-2],"split_indices":[4,5,1,1,2,6,0,0,0,0,0,0,0,0,0],"split_type":[0,0,0,0,0,0,0,0,0,0,0,0,0,0,0],"sum_hessian":[1.2068968E2,3.5387245E1,8.530244E1,3.2761192E1,2.626053E0,2.2301525E1,6.3000908E1,2.6641306E1,6.1198864E0,1.4314684E0,1.1945846E0,5.899559E0,1.6401966E1,4.7993782E1,1.5007125E1],"tree_param":{"num_deleted":"0","num_feature":"8","num_nodes":"15","size_leaf_vector":"1"}},{"base_weights":[-1.4931758E-2,-7.2631544E-1,1.593934E-1,-9.9855906E-1,-5.888612E-2,2.488626E-2,9.2471665E-1,-1.1440352E-1,-4.7380216E-2,7.061675E-2,-5.5131983E-2,-5.8627136E-2,1.9786788E-2,1.02285855E-1,-1.30054355E-2],"categories":[],"categories_nodes":[],"categories_segments":[],"categories_sizes":[],"default_left":[0,0,0,0,0,0,0,0,0,0,0,0,0,0,0],"id":12,"left_children":[1,3,5,7,9,11,13,-1,-1,-1,-1,-1,-1,-1,-1],"loss_changes":[1.49969635E1,4.2653656E0,9.982893E0,7.4355125E-1,3.387199E0,8.96449E0,1.6342182E0,0E0,0E0,0E0,0E0,0E0,0E0,0E0,0E0],"parents":[2147483647,0,0,1,1,2,2,3,3,4,4,5,5,6,6],"right_children":[2,4,6,8,10,12,14,-1,-1,-1,-1,-1,-1,-1,-1],"split_conditions":[1E2,3.1E1,1.67E2,9.5E1,3.3E1,2.5E1,1.441E0,-1.1440352E-1,-4.7380216E-2,7.061675E-2,-5.5131983E-2,-5.8627136E-2,1.9786788E-2,1.02285855E-1,-1.30054355E-2],"split_indices":[4,7,4,4,7,0,3,0,0,0,0,0,0,0,0],"split_type":[0,0,0,0,0,0,0,0,0,0,0,0,0,0,0],"sum_hessian":[1.1899795E2,2.2797949E1,9.62E1,1.5840501E1,6.9574475E0,8.269814E1,1.3501852E1,1.1478296E1,4.362205E0,2.5545766E0,4.4028707E0,1.7716202E1,6.498194E1,1.2380185E1,1.1216666E0],"tree_param":{"num_deleted":"0","num_feature":"8","num_nodes":"15","size_leaf_vector":"1"}},{"base_weights":[-1.4857031E-2,-5.3445655E-1,1.934634E-1,-1.0010153E0,-2.391256E-1,-3.099688E-1,3.7262326E-1,-1.06552616E-1,-1.1834136E-2,-7.093935E-2,9.383111E-3,-8.810297E-2,-7.7590295E-3,2.0253109E-2,8.764012E-2],"categories":[],"categories_nodes":[],"categories_segments":[],"categories_sizes":[],"default_left":[0,0,0,0,0,0,0,0,0,0,0,0,0,0,0],"id":13,"left_children":[1,3,5,7,9,11,13,-1,-1,-1,-1,-1,-1,-1,-1],"loss_changes":[1.2908995E1,4.462372E0,7.798412E0,6.0920334E-1,3.544115E0,2.9709747E0,5.2446976E0,0E0,0E0,0E0,0E0,0E0,0E0,0E0,0E0],"parents":[2147483647,0,0,1,1,2,2,3,3,4,4,5,5,6,6],"right_children":[2,4,6,8,10,12,14,-1,-1,-1,-1,-1,-1,-1,-1],"split_conditions":[1.07E2,2.6E1,2.89E1,6.58E-1,2.87E-1,2E0,4.2E1,-1.06552616E-1,-1.1834136E-2,-7.093935E-2,9.383111E-3,-8.810297E-2,-7.7590295E-3,2.0253109E-2,8.764012E-2],"split_indices":[4,0,1,3,3,6,0,0,0,0,0,0,0,0,0],"split_type":[0,0,0,0,0,0,0,0,0,0,0,0,0,0,0],"sum_hessian":[1.1730395E2,3.3122696E1,8.418125E1,1.1913107E1,2.120959E1,2.1903408E1,6.227784E1,1.0908681E1,1.0044264E0,8.32325E0,1.288634E1,5.5277724E0,1.6375637E1,4.760637E1,1.467147E1],"tree_param":{"num_deleted":"0","num_feature":"8","num_nodes":"15","size_leaf_vector":"1"}},{"base_weights":[-1.5453896E-2,-1.6721322E-1,6.620976E-1,-9.030925E-1,-1.07073635E-2,7.449846E-1,-4.1071925E-2,-1.01844944E-1,-3.81203E-2,-2.397405E-2,3.9475337E-2,1.8008841E-2,1.0490339E-1],"categories":[],"categories_nodes":[],"categories_segments":[],"categories_sizes":[],"default_left":[0,0,0,0,0,0,0,0,0,0,0,0,0],"id":14,"left_children":[1,3,5,7,9,11,-1,-1,-1,-1,-1,-1,-1],"loss_changes":[1.211844E1,1.1070448E1,2.2241726E0,6.268406E-1,7.55592E0,3.31143E0,0E0,0E0,0E0,0E0,0E0,0E0,0E0],"parents":[2147483647,0,0,1,1,2,2,3,3,4,4,5,5],"right_children":[2,4,6,8,10,12,-1,-1,-1,-1,-1,-1,-1],"split_conditions":[1.55E2,2.64E1,5.43E2,1.25E2,5.14E-1,3.05E-1,-4.1071925E-2,-1.01844944E-1,-3.81203E-2,-2.397405E-2,3.9475337E-2,1.8008841E-2,1.0490339E-1],"split_indices":[4,1,5,4,3,3,0,0,0,0,0,0,0],"split_type":[0,0,0,0,0,0,0,0,0,0,0,0,0],"sum_hessian":[1.1577859E2,9.520712E1,2.057147E1,1.5860736E1,7.934638E1,1.937975E1,1.1917214E0,1.2210334E1,3.6504016E0,5.096592E1,2.8380465E1,7.3382463E0,1.2041503E1],"tree_param":{"num_deleted":"0","num_feature":"8","num_nodes":"13","size_leaf_vector":"1"}},{"base_weights":[-1.4707247E-2,-6.492573E-1,1.3032389E-1,-9.3706787E-1,-7.2074207E-3,-2.0180035E-1,3.6960623E-1,-1.1000079E-1,-3.786245E-2,7.002917E-2,-4.907698E-2,-5.3372003E-2,1.3969055E-2,-6.745887E-2,4.726561E-2],"categories":[],"categories_nodes":[],"categories_segments":[],"categories_sizes":[],"default_left":[0,0,0,0,0,0,0,0,0,0,0,0,0,0,0],"id":15,"left_children":[1,3,5,7,9,11,13,-1,-1,-1,-1,-1,-1,-1,-1],"loss_changes":[1.06886215E1,3.985259E0,7.5942445E0,9.4010067E-1,2.9760742E0,4.639094E0,6.2747993E0,0E0,0E0,0E0,0E0,0E0,0E0,0E0,0E0],"parents":[2147483647,0,0,1,1,2,2,3,3,4,4,5,5,6,6],"right_children":[2,4,6,8,10,12,14,-1,-1,-1,-1,-1,-1,-1,-1],"split_conditions":[1E2,3.1E1,3.19E-1,9.5E1,3.3E1,3.5E1,2.54E1,-1.1000079E-1,-3.786245E-2,7.002917E-2,-4.907698E-2,-5.3372003E-2,1.3969055E-2,-6.745887E-2,4.726561E-2],"split_indices":[4,7,3,4,7,0,1,0,0,0,0,0,0,0,0],"split_type":[0,0,0,0,0,0,0,0,0,0,0,0,0,0,0],"sum_hessian":[1.1422398E2,2.0603123E1,9.3620865E1,1.390877E1,6.6943536E0,3.9270287E1,5.4350574E1,1.0016443E1,3.8923256E0,2.5358963E0,4.1584573E0,1.9628763E1,1.9641523E1,4.3837905E0,4.996678E1],"tree_param":{"num_deleted":"0","num_feature":"8","num_nodes":"15","size_leaf_vector":"1"}},{"base_weights":[-1.5585573E-2,-1.21317975E-1,7.9183775E-1,-6.450394E-1,3.8811304E-2,1.861189E-1,1.0400043E0,3.588712E-2,-8.546467E-2,-6.817614E-2,1.55539755E-2,-4.7277533E-2,5.3299215E-2,1.1056375E-1,2.749221E-2],"categories":[],"categories_nodes":[],"categories_segments":[],"categories_sizes":[],"default_left":[0,0,0,0,0,0,0,0,0,0,0,0,0,0,0],"id":16,"left_children":[1,3,5,7,9,11,13,-1,-1,-1,-1,-1,-1,-1,-1],"loss_changes":[9.821536E0,8.545269E0,1.809206E0,5.3246565E0,6.7298417E0,1.415363E0,1.5968227E-1,0E0,0E0,0E0,0E0,0E0,0E0,0E0,0E0],"parents":[2147483647,0,0,1,1,2,2,3,3,4,4,5,5,6,6],"right_children":[2,4,6,8,10,12,14,-1,-1,-1,-1,-1,-1,-1,-1],"split_conditions":[1.67E2,2.5E1,1.7E1,8E0,2.63E1,7.2E1,1.182E0,3.588712E-2,-8.546467E-2,-6.817614E-2,1.55539755E-2,-4.7277533E-2,5.3299215E-2,1.1056375E-1,2.749221E-2],"split_indices":[4,0,7,7,1,2,3,0,0,0,0,0,0,0,0],"split_type":[0,0,0,0,0,0,0,0,0,0,0,0,0,0,0],"sum_hessian":[1.1292036E2,1.0059689E2,1.2323458E1,2.2846506E1,7.775039E1,4.090192E0,8.233266E0,3.8232079E0,1.9023298E1,1.0164383E1,6.7586006E1,1.2854621E0,2.8047297E0,7.1728168E0,1.0604486E0],"tree_param":{"num_deleted":"0","num_feature":"8","num_nodes":"15","size_leaf_vector":"1"}},{"base_weights":[-1.4130397E-2,-6.0536116E-1,1.1540832E-1,-8.9847976E-1,2.9803137E-3,-1.8580723E-1,3.3174506E-1,-1.0718278E-1,-3.3244636E-2,-4.5839626E-2,6.8447314E-2,7.67231E-3,-5.570782E-2,1.0999006E-1,1.9051038E-2],"categories":[],"categories_nodes":[],"categories_segments":[],"categories_sizes":[],"default_left":[0,0,0,0,0,0,0,0,0,0,0,0,0,0,0],"id":17,"left_children":[1,3,5,7,9,11,13,-1,-1,-1,-1,-1,-1,-1,-1],"loss_changes":[8.680882E0,3.6344585E0,6.126256E0,9.926224E-1,2.7094417E0,3.8969898E0,5.705779E0,0E0,0E0,0E0,0E0,0E0,0E0,0E0,0E0],"parents":[2147483647,0,0,1,1,2,2,3,3,4,4,5,5,6,6],"right_children":[2,4,6,8,10,12,14,-1,-1,-1,-1,-1,-1,-1,-1],"split_conditions":[1E2,3.1E1,3.19E-1,9.5E1,4.52E-1,1.4E1,3.85E-1,-1.0718278E-1,-3.3244636E-2,-4.5839626E-2,6.8447314E-2,7.67231E-3,-5.570782E-2,1.0999006E-1,1.9051038E-2],"split_indices":[4,7,3,4,3,5,3,0,0,0,0,0,0,0,0],"split_type":[0,0,0,0,0,0,0,0,0,0,0,0,0,0,0],"sum_hessian":[1.1143407E2,1.9367085E1,9.206698E1,1.2747833E1,6.6192513E0,3.8542965E1,5.3524014E1,9.075026E0,3.6728077E0,4.142266E0,2.4769855E0,2.3042604E1,1.5500361E1,7.258469E0,4.6265545E1],"tree_param":{"num_deleted":"0","num_feature":"8","num_nodes":"15","size_leaf_vector":"1"}},{"base_weights":[-1.3556089E-2,-1.406238E-1,5.6521505E-1,-8.260495E-1,-1.2009142E-2,6.500935E-1,-4.6077218E-2,-9.547653E-2,-3.1779896E-2,-2.9589925E-2,2.4474302E-2,8.147905E-2,-9.6092215E-3],"categories":[],"categories_nodes":[],"categories_segments":[],"categories_sizes":[],"default_left":[0,0,0,0,0,0,0,0,0,0,0,0,0],"id":18,"left_children":[1,3,5,7,9,11,-1,-1,-1,-1,-1,-1,-1],"loss_changes":[8.282614E0,8.123544E0,2.0655594E0,6.4923954E-1,5.8088226E0,2.4310713E0,0E0,0E0,0E0,0E0,0E0,0E0,0E0],"parents":[2147483647,0,0,1,1,2,2,3,3,4,4,5,5],"right_children":[2,4,6,8,10,12,-1,-1,-1,-1,-1,-1,-1],"split_conditions":[1.55E2,2.64E1,6.1E1,1.25E2,3.1E1,3.3E2,-4.6077218E-2,-9.547653E-2,-3.1779896E-2,-2.9589925E-2,2.4474302E-2,8.147905E-2,-9.6092215E-3],"split_indices":[4,1,0,4,0,5,0,0,0,0,0,0,0],"split_type":[0,0,0,0,0,0,0,0,0,0,0,0,0],"sum_hessian":[1.1054179E2,9.126239E1,1.9279392E1,1.35622835E1,7.770011E1,1.8144682E1,1.134711E0,1.0120666E1,3.4416182E0,3.6827538E1,4.087257E1,1.4788619E1,3.356063E0],"tree_param":{"num_deleted":"0","num_feature":"8","num_nodes":"13","size_leaf_vector":"1"}},{"base_weights":[-1.3557698E-2,-4.1286838E-1,1.5419473E-1,-8.823891E-1,-9.415373E-2,4.9897134E-2,7.716615E-1,-9.897377E-2,-3.9062623E-2,8.615821E-3,-1.1113375E-1,-1.6475743E-2,4.0837653E-2,9.004281E-2,-2.5984889E-2],"categories":[],"categories_nodes":[],"categories_segments":[],"categories_sizes":[],"default_left":[0,0,0,0,0,0,0,0,0,0,0,0,0,0,0],"id":19,"left_children":[1,3,5,7,9,11,13,-1,-1,-1,-1,-1,-1,-1,-1],"loss_changes":[7.4277086E0,4.82427E0,4.9938335E0,3.070612E-1,3.8837907E0,5.2935915E0,1.7246056E0,0E0,0E0,0E0,0E0,0E0,0E0,0E0,0E0],"parents":[2147483647,0,0,1,1,2,2,3,3,4,4,5,5,6,6],"right_children":[2,4,6,8,10,12,14,-1,-1,-1,-1,-1,-1,-1,-1],"split_conditions":[2.97E1,2.8E1,1.66E2,3E0,6.3E1,5.02E-1,1.441E0,-9.897377E-2,-3.9062623E-2,8.615821E-3,-1.1113375E-1,-1.6475743E-2,4.0837653E-2,9.004281E-2,-2.5984889E-2],"split_indices":[1,0,4,6,0,3,3,0,0,0,0,0,0,0,0],"split_type":[0,0,0,0,0,0,0,0,0,0,0,0,0,0,0],"sum_hessian":[1.089352E2,3.1793692E1,7.714152E1,1.2140333E1,1.9653358E1,6.6918915E1,1.0222603E1,9.133843E0,3.0064895E0,1.7471546E1,2.1818116E0,4.2193928E1,2.4724985E1,9.201082E0,1.0215207E0],"tree_param":{"num_deleted":"0","num_feature":"8","num_nodes":"15","size_leaf_vector":"1"}},{"base_weights":[-1.3927715E-2,-5.570713E-1,9.950718E-2,-7.348819E-1,3.2201543E-1,1.035575E-2,6.8475306E-1,2.9727265E-2,-8.2791194E-2,-3.414174E-2,9.505772E-2,-4.955054E-2,1.2958944E-2,-6.719255E-2,8.9957215E-2],"categories":[],"categories_nodes":[],"categories_segments":[],"categories_sizes":[],"default_left":[0,0,0,0,0,0,0,0,0,0,0,0,0,0,0],"id":20,"left_children":[1,3,5,7,9,11,13,-1,-1,-1,-1,-1,-1,-1,-1],"loss_changes":[6.754381E0,3.1965928E0,4.7300625E0,1.787756E0,1.9430076E0,4.8777514E0,4.097916E0,0E0,0E0,0E0,0E0,0E0,0E0,0E0,0E0],"parents":[2147483647,0,0,1,1,2,2,3,3,4,4,5,5,6,6],"right_children":[2,4,6,8,10,12,14,-1,-1,-1,-1,-1,-1,-1,-1],"split_conditions":[1E2,8.7E1,4.2E1,6.1E1,2.6E1,2.5E1,1.92E-1,2.9727265E-2,-8.2791194E-2,-3.414174E-2,9.505772E-2,-4.955054E-2,1.2958944E-2,-6.719255E-2,8.9957215E-2],"split_indices":[4,5,1,4,0,0,3,0,0,0,0,0,0,0,0],"split_type":[0,0,0,0,0,0,0,0,0,0,0,0,0,0,0],"sum_hessian":[1.0772897E2,1.7936298E1,8.979267E1,1.5055169E1,2.881129E0,7.880576E1,1.0986912E1,1.0632397E0,1.3991929E1,1.6239325E0,1.2571965E0,1.4429858E1,6.43759E1,1.2110053E0,9.775907E0],"tree_param":{"num_deleted":"0","num_feature":"8","num_nodes":"15","size_leaf_vector":"1"}},{"base_weights":[-1.3074923E-2,-3.8161638E-1,1.3860433E-1,-8.4068036E-1,-9.379573E-2,9.5918304E-1,6.403973E-2,-9.169555E-2,-2.4417266E-2,7.566257E-3,-1.06718734E-1,1.1395913E-1,1.3526845E-2,-2.4809498E-2,3.161961E-2],"categories":[],"categories_nodes":[],"categories_segments":[],"categories_sizes":[],"default_left":[0,0,0,0,0,0,0,0,0,0,0,0,0,0,0],"id":21,"left_children":[1,3,5,7,9,11,13,-1,-1,-1,-1,-1,-1,-1,-1],"loss_changes":[6.0688787E0,4.1023383E0,4.648396E0,3.2523537E-1,3.4747095E0,7.8829765E-1,5.716596E0,0E0,0E0,0E0,0E0,0E0,0E0,0E0,0E0],"parents":[2147483647,0,0,1,1,2,2,3,3,4,4,5,5,6,6],"right_children":[2,4,6,8,10,12,14,-1,-1,-1,-1,-1,-1,-1,-1],"split_conditions":[2.97E1,2.8E1,5.4E1,1.38E2,6.3E1,3.3E1,3.1E1,-9.169555E-2,-2.4417266E-2,7.566257E-3,-1.06718734E-1,1.1395913E-1,1.3526845E-2,-2.4809498E-2,3.161961E-2],"split_indices":[1,0,2,4,0,0,0,0,0,0,0,0,0,0,0],"split_type":[0,0,0,0,0,0,0,0,0,0,0,0,0,0,0],"sum_hessian":[1.066203E2,3.0644974E1,7.597533E1,1.1069176E1,1.9575798E1,5.3404317E0,7.0634895E1,9.337934E0,1.7312422E0,1.7458677E1,2.1171217E0,4.0668025E0,1.273629E0,3.1570763E1,3.9064133E1],"tree_param":{"num_deleted":"0","num_feature":"8","num_nodes":"15","size_leaf_vector":"1"}},{"base_weights":[-1.3023222E-2,-9.811195E-2,6.343576E-1,-2.2606151E-1,3.3184916E-1,5.9889564E-3,9.4290435E-1,-1.4657534E-2,-1.1698901E-1,4.8891924E-2,-6.786459E-2,-5.6548126E-2,3.2314736E-2,1.0116299E-1,2.178981E-2],"categories":[],"categories_nodes":[],"categories_segments":[],"categories_sizes":[],"default_left":[0,0,0,0,0,0,0,0,0,0,0,0,0,0,0],"id":22,"left_children":[1,3,5,7,9,11,13,-1,-1,-1,-1,-1,-1,-1,-1],"loss_changes":[5.940402E0,5.3112373E0,2.4237328E0,5.3761406E0,3.8607028E0,1.1130506E0,1.9797897E-1,0E0,0E0,0E0,0E0,0E0,0E0,0E0,0E0],"parents":[2147483647,0,0,1,1,2,2,3,3,4,4,5,5,6,6],"right_children":[2,4,6,8,10,12,14,-1,-1,-1,-1,-1,-1,-1,-1],"split_conditions":[1.66E2,4.3E1,1.7E1,2.55E2,6.3E1,7.2E1,1.182E0,-1.4657534E-2,-1.1698901E-1,4.8891924E-2,-6.786459E-2,-5.6548126E-2,3.2314736E-2,1.0116299E-1,2.178981E-2],"split_indices":[4,0,7,5,0,2,3,0,0,0,0,0,0,0,0],"split_type":[0,0,0,0,0,0,0,0,0,0,0,0,0,0,0],"sum_hessian":[1.0571117E2,9.418091E1,1.1530253E1,7.294721E1,2.1233698E1,4.1328793E0,7.397374E0,6.834658E1,4.6006284E0,1.8823895E1,2.4098036E0,1.1956115E0,2.9372678E0,6.3957605E0,1.0016136E0],"tree_param":{"num_deleted":"0","num_feature":"8","num_nodes":"15","size_leaf_vector":"1"}},{"base_weights":[-1.2220201E-2,-3.920586E-1,1.2437479E-1,-5.075457E-1,6.043722E-1,2.6879579E-2,6.984157E-1,-1.705095E-2,-8.56226E-2,-2.4296498E-2,1.1610667E-1,7.872264E-3,-1.1939164E-1,9.536656E-2,-4.6320926E-2],"categories":[],"categories_nodes":[],"categories_segments":[],"categories_sizes":[],"default_left":[0,0,0,0,0,0,0,0,0,0,0,0,0,0,0],"id":23,"left_children":[1,3,5,7,9,11,13,-1,-1,-1,-1,-1,-1,-1,-1],"loss_changes":[5.542474E0,3.5572577E0,4.3822727E0,2.8926258E0,1.8813155E0,4.414197E0,3.8150063E0,0E0,0E0,0E0,0E0,0E0,0E0,0E0,0E0],"parents":[2147483647,0,0,1,1,2,2,3,3,4,4,5,5,6,6],"right_children":[2,4,6,8,10,12,14,-1,-1,-1,-1,-1,-1,-1,-1],"split_conditions":[1.07E2,1.55E2,4.09E1,1.4E1,7.4E1,4E1,2.55E2,-1.705095E-2,-8.56226E-2,-2.4296498E-2,1.1610667E-1,7.872264E-3,-1.1939164E-1,9.536656E-2,-4.6320926E-2],"split_indices":[4,5,1,5,2,1,5,0,0,0,0,0,0,0,0],"split_type":[0,0,0,0,0,0,0,0,0,0,0,0,0,0,0],"sum_hessian":[1.0488444E2,2.7246931E1,7.7637505E1,2.4856663E1,2.3902698E0,6.726075E1,1.0376754E1,1.3396525E1,1.1460137E1,1.1711841E0,1.2190856E0,6.541818E1,1.8425722E0,8.654157E0,1.7225978E0],"tree_param":{"num_deleted":"0","num_feature":"8","num_nodes":"15","size_leaf_vector":"1"}},{"base_weights":[-1.1967061E-2,-3.5757288E-1,1.2775232E-1,-8.012031E-1,-9.973744E-2,5.173569E-1,-1.76968E-2,-9.23937E-2,-2.9459134E-2,5.3784205E-3,-1.0122784E-1,1.1058455E-1,2.2648606E-2,-1.6247634E-2,5.8726817E-2],"categories":[],"categories_nodes":[],"categories_segments":[],"categories_sizes":[],"default_left":[0,0,0,0,0,0,0,0,0,0,0,0,0,0,0],"id":24,"left_children":[1,3,5,7,9,11,13,-1,-1,-1,-1,-1,-1,-1,-1],"loss_changes":[5.1204767E0,3.4109347E0,4.2918673E0,4.1647243E-1,2.9184387E0,3.2719054E0,5.000115E0,0E0,0E0,0E0,0E0,0E0,0E0,0E0,0E0],"parents":[2147483647,0,0,1,1,2,2,3,3,4,4,5,5,6,6],"right_children":[2,4,6,8,10,12,14,-1,-1,-1,-1,-1,-1,-1,-1],"split_conditions":[2.97E1,2.8E1,6.8E1,3E0,6.3E1,1.3E1,1.58E2,-9.23937E-2,-2.9459134E-2,5.3784205E-3,-1.0122784E-1,1.1058455E-1,2.2648606E-2,-1.6247634E-2,5.8726817E-2],"split_indices":[1,0,2,6,0,7,4,0,0,0,0,0,0,0,0],"split_type":[0,0,0,0,0,0,0,0,0,0,0,0,0,0,0],"sum_hessian":[1.0409472E2,2.9518755E1,7.4575966E1,1.0075495E1,1.944326E1,1.9577663E1,5.4998302E1,7.44748E0,2.6280148E0,1.7448814E1,1.9944464E0,5.549035E0,1.4028628E1,4.4968033E1,1.003027E1],"tree_param":{"num_deleted":"0","num_feature":"8","num_nodes":"15","size_leaf_vector":"1"}},{"base_weights":[-1.149977E-2,-4.816363E-1,8.081294E-2,-8.0962634E-1,9.4350226E-2,-1.7904711E-1,2.6933014E-1,-1.0202813E-1,-1.6197478E-2,-7.6558724E-2,4.5446403E-2,5.6748637E-3,-5.210204E-2,9.822609E-2,1.3803825E-2],"categories":[],"categories_nodes":[],"categories_segments":[],"categories_sizes":[],"default_left":[0,0,0,0,0,0,0,0,0,0,0,0,0,0,0],"id":25,"left_children":[1,3,5,7,9,11,13,-1,-1,-1,-1,-1,-1,-1,-1],"loss_changes":[4.5622153E0,3.3351526E0,4.357936E0,1.348486E0,2.5634477E0,3.060593E0,4.6742125E0,0E0,0E0,0E0,0E0,0E0,0E0,0E0,0E0],"parents":[2147483647,0,0,1,1,2,2,3,3,4,4,5,5,6,6],"right_children":[2,4,6,8,10,12,14,-1,-1,-1,-1,-1,-1,-1,-1],"split_conditions":[1E2,3.1E1,3.19E-1,9.5E1,2.4E-1,1.4E1,3.85E-1,-1.0202813E-1,-1.6197478E-2,-7.6558724E-2,4.5446403E-2,5.6748637E-3,-5.210204E-2,9.822609E-2,1.3803825E-2],"split_indices":[4,7,3,4,3,5,3,0,0,0,0,0,0,0,0],"split_type":[0,0,0,0,0,0,0,0,0,0,0,0,0,0,0],"sum_hessian":[1.0322436E2,1.624964E1,8.6974724E1,1.0095321E1,6.1543183E0,3.6589058E1,5.0385662E1,7.183471E0,2.9118493E0,1.4841849E0,4.6701336E0,2.2150211E1,1.4438848E1,6.827891E0,4.355777E1],"tree_param":{"num_deleted":"0","num_feature":"8","num_nodes":"15","size_leaf_vector":"1"}},{"base_weights":[-1.1543537E-2,-3.3565795E-1,1.17063835E-1,-9.34526E-2,-1.5858108E-1,-6.1278656E-2,4.0265206E-1,-6.6137835E-2,1.852846E-3,7.9164684E-2,-1.4528423E-2,1.2908266E-1,2.1528784E-2],"categories":[],"categories_nodes":[],"categories_segments":[],"categories_sizes":[],"default_left":[0,0,0,0,0,0,0,0,0,0,0,0,0],"id":26,"left_children":[1,3,5,-1,7,9,11,-1,-1,-1,-1,-1,-1],"loss_changes":[4.3546286E0,2.9979532E0,3.837397E0,0E0,2.158525E0,3.4789674E0,4.5328827E0,0E0,0E0,0E0,0E0,0E0,0E0],"parents":[2147483647,0,0,1,1,2,2,4,4,5,5,6,6],"right_children":[2,4,6,-1,8,10,12,-1,-1,-1,-1,-1,-1],"split_conditions":[2.97E1,1.05E2,5.02E-1,-9.34526E-2,2.12E-1,5.4E1,5.57E-1,-6.6137835E-2,1.852846E-3,7.9164684E-2,-1.4528423E-2,1.2908266E-1,2.1528784E-2],"split_indices":[1,4,3,0,3,2,3,0,0,0,0,0,0],"split_type":[0,0,0,0,0,0,0,0,0,0,0,0,0],"sum_hessian":[1.02526215E2,2.8667887E1,7.385833E1,5.566078E0,2.3101809E1,4.594949E1,2.7908842E1,5.305554E0,1.7796255E1,3.3645718E0,4.258492E1,3.8358972E0,2.4072945E1],"tree_param":{"num_deleted":"0","num_feature":"8","num_nodes":"13","size_leaf_vector":"1"}},{"base_weights":[-1.0167915E-2,-8.019467E-2,5.7986325E-1,-1.9670077E-1,2.9625952E-1,-2.926206E-3,8.5478926E-1,-8.806317E-3,-8.628472E-2,4.555415E-2,-6.889319E-2,-5.8905747E-2,3.731453E-2,9.290954E-2,2.0184677E-2],"categories":[],"categories_nodes":[],"categories_segments":[],"categories_sizes":[],"default_left":[0,0,0,0,0,0,0,0,0,0,0,0,0,0,0],"id":27,"left_children":[1,3,5,7,9,11,13,-1,-1,-1,-1,-1,-1,-1,-1],"loss_changes":[4.301208E0,4.134043E0,1.7723794E0,5.103197E0,3.822908E0,1.2199447E0,1.7678261E-1,0E0,0E0,0E0,0E0,0E0,0E0,0E0,0E0],"parents":[2147483647,0,0,1,1,2,2,3,3,4,4,5,5,6,6],"right_children":[2,4,6,8,10,12,14,-1,-1,-1,-1,-1,-1,-1,-1],"split_conditions":[1.67E2,4.3E1,1.7E1,1.96E2,6.3E1,7.2E1,1.057E0,-8.806317E-3,-8.628472E-2,4.555415E-2,-6.889319E-2,-5.8905747E-2,3.731453E-2,9.290954E-2,2.0184677E-2],"split_indices":[4,0,7,5,0,2,3,0,0,0,0,0,0,0,0],"split_type":[0,0,0,0,0,0,0,0,0,0,0,0,0,0,0],"sum_hessian":[1.0197473E2,9.192846E1,1.0046275E1,7.056675E1,2.1361706E1,3.5372827E0,6.508992E0,6.164556E1,8.921187E0,1.8851482E1,2.510224E0,1.1611744E0,2.3761082E0,5.4642177E0,1.0447745E0],"tree_param":{"num_deleted":"0","num_feature":"8","num_nodes":"15","size_leaf_vector":"1"}},{"base_weights":[-9.40989E-3,-9.682403E-2,4.1334122E-1,-7.177101E-1,-5.9778383E-4,5.0430226E-1,-4.998321E-2,-8.745849E-2,-2.1222541E-2,9.190328E-2,-5.622978E-3,6.394967E-3,7.838329E-2],"categories":[],"categories_nodes":[],"categories_segments":[],"categories_sizes":[],"default_left":[0,0,0,0,0,0,0,0,0,0,0,0,0],"id":28,"left_children":[1,3,5,7,9,11,-1,-1,-1,-1,-1,-1,-1],"loss_changes":[3.8196228E0,5.111572E0,1.7234881E0,7.247677E-1,3.8929594E0,1.994133E0,0E0,0E0,0E0,0E0,0E0,0E0,0E0],"parents":[2147483647,0,0,1,1,2,2,3,3,4,4,5,5],"right_children":[2,4,6,8,10,12,-1,-1,-1,-1,-1,-1,-1],"split_conditions":[1.55E2,2.64E1,5.43E2,1.25E2,4.4E1,1.7E1,-4.998321E-2,-8.745849E-2,-2.1222541E-2,9.190328E-2,-5.622978E-3,6.394967E-3,7.838329E-2],"split_indices":[4,1,5,4,2,7,0,0,0,0,0,0,0],"split_type":[0,0,0,0,0,0,0,0,0,0,0,0,0],"sum_hessian":[1.0127738E2,8.45629E1,1.6714481E1,1.0480487E1,7.408241E1,1.5607562E1,1.1069196E0,7.441013E0,3.0394745E0,3.3405893E0,7.074182E1,6.5375485E0,9.070014E0],"tree_param":{"num_deleted":"0","num_feature":"8","num_nodes":"13","size_leaf_vector":"1"}},{"base_weights":[-8.522599E-3,-3.8703582E-1,8.476662E-2,4.6737343E-1,-5.902869E-1,4.2999573E-2,1.3017751E-1,-2.9379763E-3,1.0104865E-1,-9.49218E-2,1.6253218E-3,-4.055999E-2,1.2645036E-2],"categories":[],"categories_nodes":[],"categories_segments":[],"categories_sizes":[],"default_left":[0,0,0,0,0,0,0,0,0,0,0,0,0],"id":29,"left_children":[1,3,5,7,9,11,-1,-1,-1,-1,-1,-1,-1],"loss_changes":[3.610622E0,3.786253E0,4.117657E0,1.2282858E0,3.666668E0,3.0618155E0,0E0,0E0,0E0,0E0,0E0,0E0,0E0],"parents":[2147483647,0,0,1,1,2,2,3,3,4,4,5,5],"right_children":[2,4,6,8,10,12,-1,-1,-1,-1,-1,-1,-1],"split_conditions":[2.5E1,8E0,4.83E1,3.95E-1,3.2E1,2.03E-1,1.3017751E-1,-2.9379763E-3,1.0104865E-1,-9.49218E-2,1.6253218E-3,-4.055999E-2,1.2645036E-2],"split_indices":[0,7,1,3,7,3,0,0,0,0,0,0,0],"split_type":[0,0,0,0,0,0,0,0,0,0,0,0,0],"sum_hessian":[1.0032235E2,1.9214075E1,8.110828E1,3.4426544E0,1.57714205E1,7.941803E1,1.6902498E0,2.2921064E0,1.1505481E0,9.553181E0,6.2182393E0,1.1851038E1,6.756699E1],"tree_param":{"num_deleted":"0","num_feature":"8","num_nodes":"13","size_leaf_vector":"1"}},{"base_weights":[-6.9465814E-3,-3.9825457E-1,8.134345E-2,-6.2261206E-1,3.210321E-1,4.8626773E-3,5.8110136E-1,-2.9001076E-2,-1.0144209E-1,1.0126735E-1,-1.5693238E-2,1.6254693E-2,-2.6482338E-2,-6.5128036E-2,7.856815E-2],"categories":[],"categories_nodes":[],"categories_segments":[],"categories_sizes":[],"default_left":[0,0,0,0,0,0,0,0,0,0,0,0,0,0,0],"id":30,"left_children":[1,3,5,7,9,11,13,-1,-1,-1,-1,-1,-1,-1,-1],"loss_changes":[3.5123923E0,3.2196884E0,3.1701584E0,1.6089258E0,1.8478107E0,3.147612E0,3.287458E0,0E0,0E0,0E0,0E0,0E0,0E0,0E0,0E0],"parents":[2147483647,0,0,1,1,2,2,3,3,4,4,5,5,6,6],"right_children":[2,4,6,8,10,12,14,-1,-1,-1,-1,-1,-1,-1,-1],"split_conditions":[1.01E2,8.7E1,4.2E1,1.4E1,1E2,7.8E1,1.92E-1,-2.9001076E-2,-1.0144209E-1,1.0126735E-1,-1.5693238E-2,1.6254693E-2,-2.6482338E-2,-6.5128036E-2,7.856815E-2],"split_indices":[4,5,1,5,5,2,3,0,0,0,0,0,0,0,0],"split_type":[0,0,0,0,0,0,0,0,0,0,0,0,0,0,0],"sum_hessian":[9.97276E1,1.7712727E1,8.201488E1,1.3603859E1,4.1088667E0,7.200524E1,1.0009637E1,8.299071E0,5.3047876E0,1.2219359E0,2.8869307E0,4.5688595E1,2.6316645E1,1.114207E0,8.89543E0],"tree_param":{"num_deleted":"0","num_feature":"8","num_nodes":"15","size_leaf_vector":"1"}},{"base_weights":[-6.9021187E-3,-1.2832986E-1,2.6683527E-1,-4.962904E-1,4.1445743E-2,1.8992452E-2,8.8004774E-1,-6.1886042E-2,2.1309895E-2,4.9743723E-2,-1.6298601E-2,1.8916545E-2,-9.5581695E-2,-3.0368257E-2,1.0733825E-1],"categories":[],"categories_nodes":[],"categories_segments":[],"categories_sizes":[],"default_left":[0,0,0,0,0,0,0,0,0,0,0,0,0,0,0],"id":31,"left_children":[1,3,5,7,9,11,13,-1,-1,-1,-1,-1,-1,-1,-1],"loss_changes":[3.365132E0,4.3992605E0,4.7125216E0,2.0627475E0,4.638112E0,4.026509E0,2.3707209E0,0E0,0E0,0E0,0E0,0E0,0E0,0E0,0E0],"parents":[2147483647,0,0,1,1,2,2,3,3,4,4,5,5,6,6],"right_children":[2,4,6,8,10,12,14,-1,-1,-1,-1,-1,-1,-1,-1],"split_conditions":[4.1E1,3.05E1,1.12E2,7E0,6.8E1,3.2E1,6.8E1,-6.1886042E-2,2.1309895E-2,4.9743723E-2,-1.6298601E-2,1.8916545E-2,-9.5581695E-2,-3.0368257E-2,1.0733825E-1],"split_indices":[0,1,5,6,2,5,2,0,0,0,0,0,0,0,0],"split_type":[0,0,0,0,0,0,0,0,0,0,0,0,0,0,0],"sum_hessian":[9.920933E1,6.9091896E1,3.0117428E1,2.1206692E1,4.788521E1,2.2182764E1,7.934663E0,1.8191189E1,3.0155034E0,1.437904E1,3.350617E1,1.9572014E1,2.6107507E0,1.0338645E0,6.9007983E0],"tree_param":{"num_deleted":"0","num_feature":"8","num_nodes":"15","size_leaf_vector":"1"}},{"base_weights":[-6.4776368E-3,-6.484364E-2,5.0704753E-1,-2.0220771E-1,1.8668494E-1,-4.3845706E-4,7.711121E-1,-2.530091E-2,9.2515066E-2,1.0625743E-1,4.7304356E-3,-5.444749E-2,3.5434887E-2,1.8999396E-2,8.593462E-2],"categories":[],"categories_nodes":[],"categories_segments":[],"categories_sizes":[],"default_left":[0,0,0,0,0,0,0,0,0,0,0,0,0,0,0],"id":32,"left_children":[1,3,5,7,9,11,13,-1,-1,-1,-1,-1,-1,-1,-1],"loss_changes":[3.0143354E0,3.1545234E0,1.3759987E0,3.6030524E0,3.9031248E0,1.0639808E0,1.8296623E-1,0E0,0E0,0E0,0E0,0E0,0E0,0E0,0E0],"parents":[2147483647,0,0,1,1,2,2,3,3,4,4,5,5,6,6],"right_children":[2,4,6,8,10,12,14,-1,-1,-1,-1,-1,-1,-1,-1],"split_conditions":[1.67E2,5.14E-1,1.7E1,4.83E1,5.57E-1,7.2E1,6.5E1,-2.530091E-2,9.2515066E-2,1.0625743E-1,4.7304356E-3,-5.444749E-2,3.5434887E-2,1.8999396E-2,8.593462E-2],"split_indices":[4,3,7,1,3,2,2,0,0,0,0,0,0,0,0],"split_type":[0,0,0,0,0,0,0,0,0,0,0,0,0,0,0],"sum_hessian":[9.847338E1,8.9207954E1,9.265427E0,5.782488E1,3.1383076E1,3.512792E0,5.752634E0,5.6073643E1,1.7512351E0,3.3990939E0,2.7983982E1,1.1755435E0,2.3372486E0,1.1739802E0,4.578654E0],"tree_param":{"num_deleted":"0","num_feature":"8","num_nodes":"15","size_leaf_vector":"1"}},{"base_weights":[-3.1410472E-3,-3.5355544E-1,8.029184E-2,4.5944357E-1,-5.577752E-1,4.383304E-2,1.1467387E-1,-2.2780103E-5,9.259265E-2,-9.072172E-2,-1.0411128E-3,-3.501148E-2,1.16658835E-2],"categories":[],"categories_nodes":[],"categories_segments":[],"categories_sizes":[],"default_left":[0,0,0,0,0,0,0,0,0,0,0,0,0],"id":33,"left_children":[1,3,5,7,9,11,-1,-1,-1,-1,-1,-1,-1],"loss_changes":[2.9172215E0,3.4419367E0,3.0844786E0,9.437884E-1,3.0101337E0,2.3072586E0,0E0,0E0,0E0,0E0,0E0,0E0,0E0],"parents":[2147483647,0,0,1,1,2,2,3,3,4,4,5,5],"right_children":[2,4,6,8,10,12,-1,-1,-1,-1,-1,-1,-1],"split_conditions":[2.5E1,8E0,4.83E1,3.95E-1,3.2E1,2.03E-1,1.1467387E-1,-2.2780103E-5,9.259265E-2,-9.072172E-2,-1.0411128E-3,-3.501148E-2,1.16658835E-2],"split_indices":[0,7,1,3,7,3,0,0,0,0,0,0,0],"split_type":[0,0,0,0,0,0,0,0,0,0,0,0,0],"sum_hessian":[9.781056E1,1.8187263E1,7.962331E1,3.4004235E0,1.47868395E1,7.799788E1,1.6254244E0,2.2161474E0,1.1842761E0,8.623863E0,6.1629763E0,1.1575134E1,6.6422745E1],"tree_param":{"num_deleted":"0","num_feature":"8","num_nodes":"13","size_leaf_vector":"1"}},{"base_weights":[-2.1468732E-3,-9.900673E-2,2.945921E-1,-6.3050715E-3,-6.119979E-1,4.4962263E-1,-6.49025E-1,-4.709234E-2,1.2568973E-2,-8.1322245E-2,2.4752093E-2,5.4706026E-2,-7.525428E-2,-9.583491E-2,9.865913E-3],"categories":[],"categories_nodes":[],"categories_segments":[],"categories_sizes":[],"default_left":[0,0,0,0,0,0,0,0,0,0,0,0,0,0,0],"id":34,"left_children":[1,3,5,7,9,11,13,-1,-1,-1,-1,-1,-1,-1,-1],"loss_changes":[2.8534894E0,3.5547462E0,3.8661344E0,4.0079627E0,2.1803489E0,2.9390354E0,9.865904E-1,0E0,0E0,0E0,0E0,0E0,0E0,0E0,0E0],"parents":[2147483647,0,0,1,1,2,2,3,3,4,4,5,5,6,6],"right_children":[2,4,6,8,10,12,14,-1,-1,-1,-1,-1,-1,-1,-1],"split_conditions":[4.3E1,1.96E2,6.3E1,1.01E2,1.66E2,1.222E0,2.81E1,-4.709234E-2,1.2568973E-2,-8.1322245E-2,2.4752093E-2,5.4706026E-2,-7.525428E-2,-9.583491E-2,9.865913E-3],"split_indices":[0,5,0,4,4,3,1,0,0,0,0,0,0,0,0],"split_type":[0,0,0,0,0,0,0,0,0,0,0,0,0,0,0],"sum_hessian":[9.7264336E1,7.383115E1,2.3433191E1,6.3388603E1,1.0442542E1,2.0576164E1,2.8570266E0,1.3456018E1,4.9932583E1,8.505222E0,1.9373195E0,1.953755E1,1.0386155E0,1.82164E0,1.0353866E0],"tree_param":{"num_deleted":"0","num_feature":"8","num_nodes":"15","size_leaf_vector":"1"}},{"base_weights":[-4.137419E-3,-4.202578E-1,5.8042604E-2,-7.103786E-1,2.8329065E-1,6.463865E-1,1.828986E-3,-8.5401624E-2,6.446755E-4,-4.3717675E-2,6.451772E-2,-1.5050693E-3,9.362074E-2,-2.3627473E-2,1.7735088E-2],"categories":[],"categories_nodes":[],"categories_segments":[],"categories_sizes":[],"default_left":[0,0,0,0,0,0,0,0,0,0,0,0,0,0,0],"id":35,"left_children":[1,3,5,7,9,11,13,-1,-1,-1,-1,-1,-1,-1,-1],"loss_changes":[2.550137E0,2.8162682E0,2.8366106E0,9.6883774E-1,1.4437257E0,1.4480653E0,3.3570328E0,0E0,0E0,0E0,0E0,0E0,0E0,0E0,0E0],"parents":[2147483647,0,0,1,1,2,2,3,3,4,4,5,5,6,6],"right_children":[2,4,6,8,10,12,14,-1,-1,-1,-1,-1,-1,-1,-1],"split_conditions":[2.64E1,1.38E2,5.4E1,5.2E1,3E0,1.14E2,3.1E1,-8.5401624E-2,6.446755E-4,-4.3717675E-2,6.451772E-2,-1.5050693E-3,9.362074E-2,-2.3627473E-2,1.7735088E-2],"split_indices":[1,4,2,0,6,4,0,0,0,0,0,0,0,0,0],"split_type":[0,0,0,0,0,0,0,0,0,0,0,0,0,0,0],"sum_hessian":[9.6615654E1,1.1811585E1,8.480407E1,8.356092E0,3.4554925E0,6.4803696E0,7.83237E1,6.8017664E0,1.5543265E0,1.0857873E0,2.3697052E0,2.2632313E0,4.2171383E0,3.308976E1,4.5233944E1],"tree_param":{"num_deleted":"0","num_feature":"8","num_nodes":"15","size_leaf_vector":"1"}},{"base_weights":[-3.7355192E-3,-5.5400763E-2,4.602372E-1,-4.5100653E-1,1.937667E-2,-7.317304E-3,7.391799E-1,-1.7910298E-3,-7.677573E-2,-1.0081886E-2,3.625327E-2,-4.866544E-2,7.033451E-2,9.747214E-2,5.0834886E-4],"categories":[],"categories_nodes":[],"categories_segments":[],"categories_sizes":[],"default_left":[0,0,0,0,0,0,0,0,0,0,0,0,0,0,0],"id":36,"left_children":[1,3,5,7,9,11,13,-1,-1,-1,-1,-1,-1,-1,-1],"loss_changes":[2.346603E0,2.6125596E0,1.2847543E0,1.9114473E0,3.1293917E0,1.928218E0,1.0590835E0,0E0,0E0,0E0,0E0,0E0,0E0,0E0,0E0],"parents":[2147483647,0,0,1,1,2,2,3,3,4,4,5,5,6,6],"right_children":[2,4,6,8,10,12,14,-1,-1,-1,-1,-1,-1,-1,-1],"split_conditions":[1.67E2,2.03E-1,7.2E1,8E0,4.2E1,3.8E1,4.4E1,-1.7910298E-3,-7.677573E-2,-1.0081886E-2,3.625327E-2,-4.866544E-2,7.033451E-2,9.747214E-2,5.0834886E-4],"split_indices":[4,3,2,7,0,0,0,0,0,0,0,0,0,0,0],"split_type":[0,0,0,0,0,0,0,0,0,0,0,0,0,0,0],"sum_hessian":[9.582866E1,8.70193E1,8.809357E0,1.3033736E1,7.3985565E1,3.6556487E0,5.1537085E0,5.9520245E0,7.0817122E0,5.5316376E1,1.8669188E1,2.3713791E0,1.2842696E0,3.653626E0,1.5000825E0],"tree_param":{"num_deleted":"0","num_feature":"8","num_nodes":"15","size_leaf_vector":"1"}},{"base_weights":[-2.650963E-3,-2.5779414E-1,9.175487E-2,-8.6126976E-2,-1.13841474E-1,4.3862963E-1,-4.0409673E-2,3.1400403E-5,-9.359961E-2,9.4152175E-2,1.8147595E-2,-1.1299723E-2,7.3891304E-2],"categories":[],"categories_nodes":[],"categories_segments":[],"categories_sizes":[],"default_left":[0,0,0,0,0,0,0,0,0,0,0,0,0],"id":37,"left_children":[1,3,5,-1,7,9,11,-1,-1,-1,-1,-1,-1],"loss_changes":[2.34117E0,2.1821637E0,3.2711468E0,0E0,2.0974488E0,2.372048E0,3.0422173E0,0E0,0E0,0E0,0E0,0E0,0E0],"parents":[2147483647,0,0,1,1,2,2,4,4,5,5,6,6],"right_children":[2,4,6,-1,8,10,12,-1,-1,-1,-1,-1,-1],"split_conditions":[2.97E1,1.05E2,6.8E1,-8.6126976E-2,6.3E1,1.3E1,5.2E1,3.1400403E-5,-9.359961E-2,9.4152175E-2,1.8147595E-2,-1.1299723E-2,7.3891304E-2],"split_indices":[1,4,2,0,0,7,0,0,0,0,0,0,0],"split_type":[0,0,0,0,0,0,0,0,0,0,0,0,0],"sum_hessian":[9.521438E1,2.5247972E1,6.99664E1,3.902978E0,2.1344994E1,1.8663631E1,5.1302773E1,1.9620344E1,1.7246504E0,5.414218E0,1.32494135E1,4.7713642E1,3.5891309E0],"tree_param":{"num_deleted":"0","num_feature":"8","num_nodes":"13","size_leaf_vector":"1"}},{"base_weights":[-2.5914111E-3,-6.4753495E-2,3.817269E-1,-2.5261648E-2,-1.1351281E-1,-6.8020694E-2,5.489712E-1,-1.3352017E-2,3.5600565E-2,1.1025882E-1,7.87054E-3],"categories":[],"categories_nodes":[],"categories_segments":[],"categories_sizes":[],"default_left":[0,0,0,0,0,0,0,0,0,0,0],"id":38,"left_children":[1,3,5,7,-1,-1,9,-1,-1,-1,-1],"loss_changes":[2.3143585E0,3.494711E0,2.769031E0,3.407729E0,0E0,0E0,3.0912116E0,0E0,0E0,0E0,0E0],"parents":[2147483647,0,0,1,1,2,2,3,3,6,6],"right_children":[2,4,6,8,-1,-1,10,-1,-1,-1,-1],"split_conditions":[4.09E1,4E1,1.97E-1,6.6E-1,-1.1351281E-1,-6.8020694E-2,1.8E1,-1.3352017E-2,3.5600565E-2,1.1025882E-1,7.87054E-3],"split_indices":[1,1,3,3,0,0,5,0,0,0,0],"split_type":[0,0,0,0,0,0,0,0,0,0,0],"sum_hessian":[9.484084E1,8.235219E1,1.2488654E1,8.0409065E1,1.9431201E0,1.2819083E0,1.1206746E1,6.3132713E1,1.7276352E1,4.5296464E0,6.6770997E0],"tree_param":{"num_deleted":"0","num_feature":"8","num_nodes":"11","size_leaf_vector":"1"}},{"base_weights":[-2.7439096E-3,-3.2154155E-1,6.502157E-2,-5.454605E-1,3.2840863E-1,-1.2296423E-1,2.0766658E-1,-2.196263E-2,-9.6416645E-2,9.755998E-2,-1.4445515E-2,1.1691345E-3,-7.2480865E-2,9.768707E-2,6.3941064E-3],"categories":[],"categories_nodes":[],"categories_segments":[],"categories_sizes":[],"default_left":[0,0,0,0,0,0,0,0,0,0,0,0,0,0,0],"id":39,"left_children":[1,3,5,7,9,11,13,-1,-1,-1,-1,-1,-1,-1,-1],"loss_changes":[2.0855615E0,2.6418896E0,2.1613297E0,1.556592E0,1.6589303E0,2.8442113E0,4.985162E0,0E0,0E0,0E0,0E0,0E0,0E0,0E0,0E0],"parents":[2147483647,0,0,1,1,2,2,3,3,4,4,5,5,6,6],"right_children":[2,4,6,8,10,12,14,-1,-1,-1,-1,-1,-1,-1,-1],"split_conditions":[1.01E2,8.7E1,3.19E-1,1.4E1,1E2,2.8E-1,3.85E-1,-2.196263E-2,-9.6416645E-2,9.755998E-2,-1.4445515E-2,1.1691345E-3,-7.2480865E-2,9.768707E-2,6.3941064E-3],"split_indices":[4,5,3,5,5,3,3,0,0,0,0,0,0,0,0],"split_type":[0,0,0,0,0,0,0,0,0,0,0,0,0,0,0],"sum_hessian":[9.457048E1,1.5921947E1,7.864853E1,1.1961701E1,3.9602456E0,3.399109E1,4.4657444E1,7.584234E0,4.377467E0,1.2230835E0,2.7371619E0,2.8577732E1,5.4133563E0,6.117962E0,3.8539482E1],"tree_param":{"num_deleted":"0","num_feature":"8","num_nodes":"15","size_leaf_vector":"1"}},{"base_weights":[-2.666641E-3,-2.4142995E-1,8.4841214E-2,-8.359739E-2,-1.09835014E-1,4.0814814E-1,-3.879127E-2,-3.769033E-4,-8.922871E-2,1.4454231E-2,8.387342E-2,-1.0689447E-2,6.987393E-2],"categories":[],"categories_nodes":[],"categories_segments":[],"categories_sizes":[],"default_left":[0,0,0,0,0,0,0,0,0,0,0,0,0],"id":40,"left_children":[1,3,5,-1,7,9,11,-1,-1,-1,-1,-1,-1],"loss_changes":[2.0057619E0,1.9224025E0,2.8247604E0,0E0,1.8415537E0,2.0950582E0,2.6738894E0,0E0,0E0,0E0,0E0,0E0,0E0],"parents":[2147483647,0,0,1,1,2,2,4,4,5,5,6,6],"right_children":[2,4,6,-1,8,10,12,-1,-1,-1,-1,-1,-1],"split_conditions":[2.97E1,1.05E2,6.8E1,-8.359739E-2,6.3E1,4E0,5.2E1,-3.769033E-4,-8.922871E-2,1.4454231E-2,8.387342E-2,-1.0689447E-2,6.987393E-2],"split_indices":[1,4,2,0,0,6,0,0,0,0,0,0,0],"split_type":[0,0,0,0,0,0,0,0,0,0,0,0,0],"sum_hessian":[9.401821E1,2.4744478E1,6.9273735E1,3.5142987E0,2.1230179E1,1.852593E1,5.0747803E1,1.9580715E1,1.6494641E0,1.2319556E1,6.2063737E0,4.724069E1,3.5071163E0],"tree_param":{"num_deleted":"0","num_feature":"8","num_nodes":"13","size_leaf_vector":"1"}},{"base_weights":[-2.7062504E-3,-6.618306E-2,3.154471E-1,-6.068631E-1,4.3847696E-3,4.1278645E-1,-5.43642E-2,-2.707862E-2,-8.9061856E-2,4.3083574E-3,-1.1398395E-1,-1.4236974E-2,6.1774295E-2],"categories":[],"categories_nodes":[],"categories_segments":[],"categories_sizes":[],"default_left":[0,0,0,0,0,0,0,0,0,0,0,0,0],"id":41,"left_children":[1,3,5,7,9,11,-1,-1,-1,-1,-1,-1,-1],"loss_changes":[1.9328368E0,3.0455956E0,1.555729E0,6.375642E-1,3.2168272E0,1.7797401E0,0E0,0E0,0E0,0E0,0E0,0E0,0E0],"parents":[2147483647,0,0,1,1,2,2,3,3,4,4,5,5],"right_children":[2,4,6,8,10,12,-1,-1,-1,-1,-1,-1,-1],"split_conditions":[1.55E2,2.64E1,5.43E2,1.4E1,1.53E2,7E1,-5.43642E-2,-2.707862E-2,-8.9061856E-2,4.3083574E-3,-1.1398395E-1,-1.4236974E-2,6.1774295E-2],"split_indices":[4,1,5,7,4,2,0,0,0,0,0,0,0],"split_type":[0,0,0,0,0,0,0,0,0,0,0,0,0],"sum_hessian":[9.36732E1,7.875272E1,1.4920482E1,8.214529E0,7.053819E1,1.3868603E1,1.0518793E0,4.6552258E0,3.5593038E0,6.916143E1,1.3767614E0,3.8218637E0,1.004674E1],"tree_param":{"num_deleted":"0","num_feature":"8","num_nodes":"13","size_leaf_vector":"1"}},{"base_weights":[-4.957791E-3,-3.3027333E-1,5.5115607E-2,-5.000003E-1,4.0382394E-1,-2.2464352E-2,5.0125575E-1,-2.6356494E-2,-1.0626787E-1,7.561927E-2,-1.8364973E-2,2.272767E-3,-1.05620734E-1,1.0233307E-1,6.6575627E-3],"categories":[],"categories_nodes":[],"categories_segments":[],"categories_sizes":[],"default_left":[0,0,0,0,0,0,0,0,0,0,0,0,0,0,0],"id":42,"left_children":[1,3,5,7,9,11,13,-1,-1,-1,-1,-1,-1,-1,-1],"loss_changes":[1.8579015E0,2.0480287E0,2.7912598E0,1.3803763E0,8.29372E-1,3.265185E0,2.6416855E0,0E0,0E0,0E0,0E0,0E0,0E0,0E0,0E0],"parents":[2147483647,0,0,1,1,2,2,3,3,4,4,5,5,6,6],"right_children":[2,4,6,8,10,12,14,-1,-1,-1,-1,-1,-1,-1,-1],"split_conditions":[2.03E-1,1.58E2,4.09E1,3.72E1,1.65E-1,4E1,1.8E1,-2.6356494E-2,-1.0626787E-1,7.561927E-2,-1.8364973E-2,2.272767E-3,-1.05620734E-1,1.0233307E-1,6.6575627E-3],"split_indices":[3,4,1,1,3,1,5,0,0,0,0,0,0,0,0],"split_type":[0,0,0,0,0,0,0,0,0,0,0,0,0,0,0],"sum_hessian":[9.313683E1,1.3816811E1,7.932002E1,1.1481193E1,2.335618E0,6.837912E1,1.0940897E1,9.118179E0,2.363013E0,1.2804222E0,1.0551958E0,6.645206E1,1.9270629E0,4.3554935E0,6.585404E0],"tree_param":{"num_deleted":"0","num_feature":"8","num_nodes":"15","size_leaf_vector":"1"}},{"base_weights":[-5.2263327E-3,-6.4303327E-1,2.2589665E-2,-7.973648E-3,-8.079071E-2,-5.65785E-2,2.6956776E-1,3.740102E-3,-5.6202054E-2,5.541888E-4,8.450713E-2],"categories":[],"categories_nodes":[],"categories_segments":[],"categories_sizes":[],"default_left":[0,0,0,0,0,0,0,0,0,0,0],"id":43,"left_children":[1,3,5,-1,-1,7,9,-1,-1,-1,-1],"loss_changes":[1.6784838E0,3.0274272E-1,1.7913703E0,0E0,0E0,3.3277657E0,3.372068E0,0E0,0E0,0E0,0E0],"parents":[2147483647,0,0,1,1,2,2,5,5,6,6],"right_children":[2,4,6,-1,-1,8,10,-1,-1,-1,-1],"split_conditions":[2.29E1,2.1E1,4.3E1,-7.973648E-3,-8.079071E-2,1.96E2,1.1E2,3.740102E-3,-5.6202054E-2,5.541888E-4,8.450713E-2],"split_indices":[1,1,0,0,0,5,5,0,0,0,0],"split_type":[0,0,0,0,0,0,0,0,0,0,0],"sum_hessian":[9.279042E1,2.953385E0,8.9837036E1,1.0046359E0,1.9487492E0,6.861394E1,2.1223097E1,5.8637215E1,9.976725E0,1.5240697E1,5.9824E0],"tree_param":{"num_deleted":"0","num_feature":"8","num_nodes":"11","size_leaf_vector":"1"}},{"base_weights":[-5.3068073E-3,-2.9887995E-1,5.612693E-2,-5.1400906E-1,2.9467204E-1,-1.15128875E-1,1.8607043E-1,-1.9883096E-2,-9.388018E-2,9.059395E-2,-1.5565171E-2,1.0991895E-3,-6.778686E-2,9.539864E-2,6.157598E-3],"categories":[],"categories_nodes":[],"categories_segments":[],"categories_sizes":[],"default_left":[0,0,0,0,0,0,0,0,0,0,0,0,0,0,0],"id":44,"left_children":[1,3,5,7,9,11,13,-1,-1,-1,-1,-1,-1,-1,-1],"loss_changes":[1.7033186E0,2.2379947E0,1.7610492E0,1.4678853E0,1.512564E0,2.4448931E0,4.2270412E0,0E0,0E0,0E0,0E0,0E0,0E0,0E0,0E0],"parents":[2147483647,0,0,1,1,2,2,3,3,4,4,5,5,6,6],"right_children":[2,4,6,8,10,12,14,-1,-1,-1,-1,-1,-1,-1,-1],"split_conditions":[1.01E2,8.7E1,3.19E-1,1.4E1,1E2,2.8E-1,3.74E-1,-1.9883096E-2,-9.388018E-2,9.059395E-2,-1.5565171E-2,1.0991895E-3,-6.778686E-2,9.539864E-2,6.157598E-3],"split_indices":[4,5,3,5,5,3,3,0,0,0,0,0,0,0,0],"split_type":[0,0,0,0,0,0,0,0,0,0,0,0,0,0,0],"sum_hessian":[9.251348E1,1.5340555E1,7.717293E1,1.1357951E1,3.9826045E0,3.3343155E1,4.3829773E1,7.3629913E0,3.9949596E0,1.2602268E0,2.7223778E0,2.8039444E1,5.303711E0,5.184914E0,3.864486E1],"tree_param":{"num_deleted":"0","num_feature":"8","num_nodes":"15","size_leaf_vector":"1"}},{"base_weights":[-4.976247E-3,-3.11131E-1,5.0912768E-2,-4.7026974E-1,3.7762037E-1,-2.018859E-2,4.6453047E-1,-2.449395E-2,-1.01746164E-1,7.502215E-2,-1.6139707E-2,2.250877E-3,-9.9522166E-2,9.5152885E-2,6.285564E-3],"categories":[],"categories_nodes":[],"categories_segments":[],"categories_sizes":[],"default_left":[0,0,0,0,0,0,0,0,0,0,0,0,0,0,0],"id":45,"left_children":[1,3,5,7,9,11,13,-1,-1,-1,-1,-1,-1,-1,-1],"loss_changes":[1.6069527E0,1.7663895E0,2.3471968E0,1.2575226E0,7.7888227E-1,2.8862891E0,2.2293305E0,0E0,0E0,0E0,0E0,0E0,0E0,0E0,0E0],"parents":[2147483647,0,0,1,1,2,2,3,3,4,4,5,5,6,6],"right_children":[2,4,6,8,10,12,14,-1,-1,-1,-1,-1,-1,-1,-1],"split_conditions":[2.03E-1,1.58E2,4.09E1,3.72E1,7E0,4E1,1.8E1,-2.449395E-2,-1.01746164E-1,7.502215E-2,-1.6139707E-2,2.250877E-3,-9.9522166E-2,9.5152885E-2,6.285564E-3],"split_indices":[3,4,1,1,6,1,5,0,0,0,0,0,0,0,0],"split_type":[0,0,0,0,0,0,0,0,0,0,0,0,0,0,0],"sum_hessian":[9.198937E1,1.3495478E1,7.84939E1,1.1220217E1,2.2752616E0,6.7791626E1,1.0702269E1,8.972873E0,2.2473435E0,1.1136255E0,1.1616362E0,6.588346E1,1.9081666E0,4.2186236E0,6.4836445E0],"tree_param":{"num_deleted":"0","num_feature":"8","num_nodes":"15","size_leaf_vector":"1"}},{"base_weights":[-5.185762E-3,-2.193782E-1,7.195463E-2,-8.028724E-2,-1.00675665E-1,3.8340566E-1,-4.824069E-2,7.7488876E-5,-8.6062506E-2,-1.0252444E-2,5.864508E-2,-1.7224148E-2,2.9847065E-2],"categories":[],"categories_nodes":[],"categories_segments":[],"categories_sizes":[],"default_left":[0,0,0,0,0,0,0,0,0,0,0,0,0],"id":46,"left_children":[1,3,5,-1,7,9,11,-1,-1,-1,-1,-1,-1],"loss_changes":[1.5468187E0,1.6356455E0,2.5969818E0,0E0,1.6764795E0,1.9635539E0,2.2262874E0,0E0,0E0,0E0,0E0,0E0,0E0],"parents":[2147483647,0,0,1,1,2,2,4,4,5,5,6,6],"right_children":[2,4,6,-1,8,10,12,-1,-1,-1,-1,-1,-1],"split_conditions":[2.97E1,1.05E2,6.8E1,-8.028724E-2,6.3E1,1.07E2,4.3E1,7.7488876E-5,-8.6062506E-2,-1.0252444E-2,5.864508E-2,-1.7224148E-2,2.9847065E-2],"split_indices":[1,4,2,0,0,4,0,0,0,0,0,0,0],"split_type":[0,0,0,0,0,0,0,0,0,0,0,0,0],"sum_hessian":[9.166137E1,2.378227E1,6.78791E1,3.0459356E0,2.0736336E1,1.8291687E1,4.9587414E1,1.9175459E1,1.5608757E0,5.536569E0,1.2755118E1,3.6895138E1,1.2692276E1],"tree_param":{"num_deleted":"0","num_feature":"8","num_nodes":"13","size_leaf_vector":"1"}},{"base_weights":[-5.9462977E-3,1.6950749E-2,-7.266687E-2,-1.720314E-2,8.969157E-2,-1.1015876E-2,2.6885537E-2],"categories":[],"categories_nodes":[],"categories_segments":[],"categories_sizes":[],"default_left":[0,0,0,0,0,0,0],"id":47,"left_children":[1,3,-1,5,-1,-1,-1],"loss_changes":[1.5339706E0,2.730706E0,0E0,2.3683133E0,0E0,0E0,0E0],"parents":[2147483647,0,0,1,1,3,3],"right_children":[2,4,-1,6,-1,-1,-1],"split_conditions":[1.441E0,1.182E0,-7.266687E-2,4.3E1,8.969157E-2,-1.1015876E-2,2.6885537E-2],"split_indices":[3,3,0,0,0,0,0],"split_type":[0,0,0,0,0,0,0],"sum_hessian":[9.12079E1,8.93459E1,1.862001E0,8.695152E1,2.39438E0,6.609021E1,2.0861313E1],"tree_param":{"num_deleted":"0","num_feature":"8","num_nodes":"7","size_leaf_vector":"1"}},{"base_weights":[-4.9808817E-3,-4.6416838E-2,3.8283232E-1,-1.6424209E-1,1.6351978E-1,-2.1958929E-2,7.4377036E-1,3.1402626E-3,-4.043182E-2,1.0351694E-1,2.2193687E-3,-6.31031E-2,4.099385E-2,8.662748E-2,1.4258677E-2],"categories":[],"categories_nodes":[],"categories_segments":[],"categories_sizes":[],"default_left":[0,0,0,0,0,0,0,0,0,0,0,0,0,0,0],"id":48,"left_children":[1,3,5,7,9,11,13,-1,-1,-1,-1,-1,-1,-1,-1],"loss_changes":[1.4954089E0,2.1039004E0,1.3290123E0,2.5623188E0,3.7572167E0,1.6282395E0,2.2838497E-1,0E0,0E0,0E0,0E0,0E0,0E0,0E0,0E0],"parents":[2147483647,0,0,1,1,2,2,3,3,4,4,5,5,6,6],"right_children":[2,4,6,8,10,12,14,-1,-1,-1,-1,-1,-1,-1,-1],"split_conditions":[1.67E2,5.14E-1,2.6E1,1.4E1,5.57E-1,7.2E1,8.28E-1,3.1402626E-3,-4.043182E-2,1.0351694E-1,2.2193687E-3,-6.31031E-2,4.099385E-2,8.662748E-2,1.4258677E-2],"split_indices":[4,3,7,5,3,2,3,0,0,0,0,0,0,0,0],"split_type":[0,0,0,0,0,0,0,0,0,0,0,0,0,0,0],"sum_hessian":[9.095354E1,8.296901E1,7.9845247E0,5.3282368E1,2.9686644E1,4.206314E0,3.7782104E0,2.983676E1,2.3445608E1,3.2593615E0,2.6427282E1,1.5539E0,2.652414E0,2.7723365E0,1.0058739E0],"tree_param":{"num_deleted":"0","num_feature":"8","num_nodes":"15","size_leaf_vector":"1"}},{"base_weights":[-2.8621936E-3,5.431005E-1,-3.2111406E-2,8.6159045E-1,-2.567986E-2,-2.1025883E-1,1.0273015E-1,1.4841059E-2,1.1401289E-1,-7.781475E-2,-1.2354655E-2,1.6475743E-2,-1.2703113E-1],"categories":[],"categories_nodes":[],"categories_segments":[],"categories_sizes":[],"default_left":[0,0,0,0,0,0,0,0,0,0,0,0,0],"id":49,"left_children":[1,3,5,7,-1,9,11,-1,-1,-1,-1,-1,-1],"loss_changes":[1.478655E0,1.4208483E0,2.1305742E0,5.454104E-1,0E0,1.7825692E0,4.5223413E0,0E0,0E0,0E0,0E0,0E0,0E0],"parents":[2147483647,0,0,1,1,2,2,3,3,5,5,6,6],"right_children":[2,4,6,8,-1,10,12,-1,-1,-1,-1,-1,-1],"split_conditions":[4.4E1,3.3E1,3.1E1,1.17E2,-2.567986E-2,1.94E-1,1.391E0,1.4841059E-2,1.1401289E-1,-7.781475E-2,-1.2354655E-2,1.6475743E-2,-1.2703113E-1],"split_indices":[2,0,0,4,0,3,3,0,0,0,0,0,0],"split_type":[0,0,0,0,0,0,0,0,0,0,0,0,0],"sum_hessian":[9.050336E1,3.7087216E0,8.679464E1,2.5974073E0,1.1113144E0,3.715181E1,4.964283E1,1.1600338E0,1.4373734E0,3.865076E0,3.3286736E1,4.833911E1,1.3037177E0],"tree_param":{"num_deleted":"0","num_feature":"8","num_nodes":"13","size_leaf_vector":"1"}},{"base_weights":[-3.7306894E-3,2.1506937E-2,-6.351556E-1,-6.0253307E-2,2.9873064E-1,-9.1488644E-2,-4.615083E-3,2.0243967E-2,-2.0167708E-2,1.1415627E-2,8.072475E-2],"categories":[],"categories_nodes":[],"categories_segments":[],"categories_sizes":[],"default_left":[0,0,0,0,0,0,0,0,0,0,0],"id":50,"left_children":[1,3,5,7,9,-1,-1,-1,-1,-1,-1],"loss_changes":[1.4660103E0,2.0262609E0,5.4029393E-1,2.6137333E0,1.8176516E0,0E0,0E0,0E0,0E0,0E0,0E0],"parents":[2147483647,0,0,1,1,2,2,3,3,4,4],"right_children":[2,4,6,8,10,-1,-1,-1,-1,-1,-1],"split_conditions":[6.3E1,4.3E1,8.2E1,6.8E1,1.4E2,-9.1488644E-2,-4.615083E-3,2.0243967E-2,-2.0167708E-2,1.1415627E-2,8.072475E-2],"split_indices":[0,0,2,2,5,0,0,0,0,0,0],"split_type":[0,0,0,0,0,0,0,0,0,0,0],"sum_hessian":[9.013833E1,8.7602844E1,2.5354872E0,6.8255295E1,1.9347548E1,1.3439445E0,1.1915425E0,2.3735481E1,4.4519814E1,1.5093579E1,4.253969E0],"tree_param":{"num_deleted":"0","num_feature":"8","num_nodes":"11","size_leaf_vector":"1"}},{"base_weights":[-3.3979872E-3,-1.891883E-1,8.088887E-2,-6.5032065E-1,-4.875506E-2,-7.505033E-2,3.2732198E-1,-9.071142E-2,2.3401245E-2,2.1511497E-2,-3.2155257E-2,-1.306736E-2,7.652011E-2,1.1943828E-1,1.3041139E-2],"categories":[],"categories_nodes":[],"categories_segments":[],"categories_sizes":[],"default_left":[0,0,0,0,0,0,0,0,0,0,0,0,0,0,0],"id":51,"left_children":[1,3,5,7,9,11,13,-1,-1,-1,-1,-1,-1,-1,-1],"loss_changes":[1.439292E0,1.8254586E0,2.4553668E0,1.7142155E0,1.7294309E0,1.9486506E0,4.061523E0,0E0,0E0,0E0,0E0,0E0,0E0,0E0,0E0],"parents":[2147483647,0,0,1,1,2,2,3,3,4,4,5,5,6,6],"right_children":[2,4,6,8,10,12,14,-1,-1,-1,-1,-1,-1,-1,-1],"split_conditions":[3.04E1,2.7E1,5.02E-1,3E0,3.99E-1,4.83E1,5.57E-1,-9.071142E-2,2.3401245E-2,2.1511497E-2,-3.2155257E-2,-1.306736E-2,7.652011E-2,1.1943828E-1,1.3041139E-2],"split_indices":[1,0,3,6,3,1,3,0,0,0,0,0,0,0,0],"split_type":[0,0,0,0,0,0,0,0,0,0,0,0,0,0,0],"sum_hessian":[8.993344E1,2.7678406E1,6.2255035E1,5.61382E0,2.2064585E1,3.8554058E1,2.370098E1,4.3305497E0,1.2832702E0,1.1323298E1,1.0741287E1,3.6952354E1,1.6017028E0,3.4488726E0,2.0252106E1],"tree_param":{"num_deleted":"0","num_feature":"8","num_nodes":"15","size_leaf_vector":"1"}},{"base_weights":[-1.9294262E-3,-6.036612E-1,2.3370154E-2,-7.250667E-2,-1.496569E-2,5.831498E-1,-6.4476603E-3,8.842773E-2,-2.1545324E-2,-1.7012674E-2,1.1729067E-2],"categories":[],"categories_nodes":[],"categories_segments":[],"categories_sizes":[],"default_left":[0,0,0,0,0,0,0,0,0,0,0],"id":52,"left_children":[1,3,5,-1,-1,7,9,-1,-1,-1,-1],"loss_changes":[1.3922423E0,9.486818E-2,1.469876E0,0E0,0E0,1.2614101E0,1.7290045E0,0E0,0E0,0E0,0E0],"parents":[2147483647,0,0,1,1,2,2,5,5,6,6],"right_children":[2,4,6,-1,-1,8,10,-1,-1,-1,-1],"split_conditions":[2.29E1,7.8E1,4.4E1,-7.250667E-2,-1.496569E-2,3.3E1,3.1E1,8.842773E-2,-2.1545324E-2,-1.7012674E-2,1.1729067E-2],"split_indices":[1,2,2,0,0,0,0,0,0,0,0],"split_type":[0,0,0,0,0,0,0,0,0,0,0],"sum_hessian":[8.9526436E1,2.6898491E0,8.6836586E1,1.6512414E0,1.0386076E0,3.4531105E0,8.338348E1,2.4296772E0,1.0234332E0,3.573668E1,4.7646797E1],"tree_param":{"num_deleted":"0","num_feature":"8","num_nodes":"11","size_leaf_vector":"1"}},{"base_weights":[-2.0897863E-3,-3.6581475E-1,3.8341913E-2,-9.3821436E-2,3.717899E-1,2.710062E-1,-5.2788377E-2,1.0954074E-1,-2.8882695E-2,6.621665E-2,-1.1687401E-2,-6.321254E-2,5.5984216E-4],"categories":[],"categories_nodes":[],"categories_segments":[],"categories_sizes":[],"default_left":[0,0,0,0,0,0,0,0,0,0,0,0,0],"id":53,"left_children":[1,3,5,-1,7,9,11,-1,-1,-1,-1,-1,-1],"loss_changes":[1.340612E0,4.198966E0,1.7547958E0,0E0,2.5635042E0,3.6074204E0,2.0270436E0,0E0,0E0,0E0,0E0,0E0,0E0],"parents":[2147483647,0,0,1,1,2,2,4,4,5,5,6,6],"right_children":[2,4,6,-1,8,10,12,-1,-1,-1,-1,-1,-1],"split_conditions":[9.3E1,3.1E1,6.8E1,-9.3821436E-2,1.4E1,4.9E1,7E1,1.0954074E-1,-2.8882695E-2,6.621665E-2,-1.1687401E-2,-6.321254E-2,5.5984216E-4],"split_indices":[4,7,2,0,5,5,2,0,0,0,0,0,0],"split_type":[0,0,0,0,0,0,0,0,0,0,0,0,0],"sum_hessian":[8.920702E1,8.11915E0,8.1087875E1,4.4183927E0,3.7007575E0,2.2266233E1,5.8821644E1,1.4520607E0,2.2486968E0,1.0734159E1,1.1532075E1,4.4857492E0,5.433589E1],"tree_param":{"num_deleted":"0","num_feature":"8","num_nodes":"13","size_leaf_vector":"1"}},{"base_weights":[-2.3714297E-3,-2.907572E-1,4.890653E-2,-3.2329693E-2,-7.76019E-1,-1.6853254E-2,4.33234E-1,6.915746E-2,-6.8317354E-2,5.5337425E-2,-1.2950112E-1,2.346398E-3,-9.181037E-2,8.9225344E-2,5.925924E-3],"categories":[],"categories_nodes":[],"categories_segments":[],"categories_sizes":[],"default_left":[0,0,0,0,0,0,0,0,0,0,0,0,0,0,0],"id":54,"left_children":[1,3,5,7,9,11,13,-1,-1,-1,-1,-1,-1,-1,-1],"loss_changes":[1.3442768E0,1.6957617E0,1.9589126E0,5.1827183E0,3.9765859E0,2.4524384E0,1.8902807E0,0E0,0E0,0E0,0E0,0E0,0E0,0E0,0E0],"parents":[2147483647,0,0,1,1,2,2,3,3,4,4,5,5,6,6],"right_children":[2,4,6,8,10,12,14,-1,-1,-1,-1,-1,-1,-1,-1],"split_conditions":[2.03E-1,1.81E-1,4.09E1,8E0,2.7E1,4E1,1.8E1,6.915746E-2,-6.8317354E-2,5.5337425E-2,-1.2950112E-1,2.346398E-3,-9.181037E-2,8.9225344E-2,5.925924E-3],"split_indices":[3,3,1,7,0,1,5,0,0,0,0,0,0,0,0],"split_type":[0,0,0,0,0,0,0,0,0,0,0,0,0,0,0],"sum_hessian":[8.8942635E1,1.272234E1,7.622029E1,8.997381E0,3.724958E0,6.590062E1,1.0319678E1,4.229982E0,4.7674E0,1.0272977E0,2.6976602E0,6.401106E1,1.8895553E0,4.010857E0,6.3088217E0],"tree_param":{"num_deleted":"0","num_feature":"8","num_nodes":"15","size_leaf_vector":"1"}},{"base_weights":[-2.9926712E-3,-4.2158965E-2,3.6637333E-1,-1.4771023E-1,1.449759E-1,-1.8908292E-2,7.201764E-1,-3.2314446E-3,-5.251121E-2,9.0424E-2,2.1177945E-3,6.5694876E-2,-3.721196E-2,8.343266E-2,1.7769245E-2],"categories":[],"categories_nodes":[],"categories_segments":[],"categories_sizes":[],"default_left":[0,0,0,0,0,0,0,0,0,0,0,0,0,0,0],"id":55,"left_children":[1,3,5,7,9,11,13,-1,-1,-1,-1,-1,-1,-1,-1],"loss_changes":[1.3123146E0,1.6400692E0,1.1992123E0,2.28643E0,2.8061044E0,1.4710007E0,1.3409638E-1,0E0,0E0,0E0,0E0,0E0,0E0,0E0,0E0],"parents":[2147483647,0,0,1,1,2,2,3,3,4,4,5,5,6,6],"right_children":[2,4,6,8,10,12,14,-1,-1,-1,-1,-1,-1,-1,-1],"split_conditions":[1.67E2,5.14E-1,2.6E1,3.85E-1,5.57E-1,1.79E2,8.01E-1,-3.2314446E-3,-5.251121E-2,9.0424E-2,2.1177945E-3,6.5694876E-2,-3.721196E-2,8.343266E-2,1.7769245E-2],"split_indices":[4,3,7,3,3,4,3,0,0,0,0,0,0,0,0],"split_type":[0,0,0,0,0,0,0,0,0,0,0,0,0,0,0],"sum_hessian":[8.864511E1,8.094757E1,7.69754E0,5.1890186E1,2.9057388E1,4.137967E0,3.559573E0,4.0570747E1,1.1319439E1,3.1898131E0,2.5867575E1,1.1251335E0,3.0128336E0,2.4963195E0,1.0632534E0],"tree_param":{"num_deleted":"0","num_feature":"8","num_nodes":"15","size_leaf_vector":"1"}},{"base_weights":[-7.952432E-4,-5.8536226E-1,2.3458872E-2,-7.073507E-2,-1.4244002E-2,3.9004064E-1,-1.597737E-2,-5.165748E-4,9.612524E-2,-5.3078573E-2,2.6286386E-3],"categories":[],"categories_nodes":[],"categories_segments":[],"categories_sizes":[],"default_left":[0,0,0,0,0,0,0,0,0,0,0],"id":56,"left_children":[1,3,5,-1,-1,7,9,-1,-1,-1,-1],"loss_changes":[1.2794716E0,9.3488455E-2,1.2593153E0,0E0,0E0,1.9144233E0,1.7376114E0,0E0,0E0,0E0,0E0],"parents":[2147483647,0,0,1,1,2,2,5,5,6,6],"right_children":[2,4,6,-1,-1,8,10,-1,-1,-1,-1],"split_conditions":[2.29E1,7.8E1,5.5E1,-7.073507E-2,-1.4244002E-2,1.3E2,9E1,-5.165748E-4,9.612524E-2,-5.3078573E-2,2.6286386E-3],"split_indices":[1,2,2,0,0,4,4,0,0,0,0],"split_type":[0,0,0,0,0,0,0,0,0,0,0],"sum_hessian":[8.827394E1,2.5950124E0,8.567893E1,1.5665488E0,1.0284635E0,7.4584146E0,7.822052E1,4.9940906E0,2.4643238E0,5.0574617E0,7.3163055E1],"tree_param":{"num_deleted":"0","num_feature":"8","num_nodes":"11","size_leaf_vector":"1"}},{"base_weights":[-1.2228264E-3,2.1995736E-2,-5.842658E-1,-5.3911764E-2,2.7733183E-1,-8.547274E-2,-3.444122E-3,2.8394973E-3,-5.0412428E-2,1.037446E-1,1.4641158E-2],"categories":[],"categories_nodes":[],"categories_segments":[],"categories_sizes":[],"default_left":[0,0,0,0,0,0,0,0,0,0,0],"id":57,"left_children":[1,3,5,7,9,-1,-1,-1,-1,-1,-1],"loss_changes":[1.2172302E0,1.6919363E0,4.8263574E-1,2.5167782E0,1.8374294E0,0E0,0E0,0E0,0E0,0E0,0E0],"parents":[2147483647,0,0,1,1,2,2,3,3,4,4],"right_children":[2,4,6,8,10,-1,-1,-1,-1,-1,-1],"split_conditions":[6.3E1,4.3E1,8.2E1,1.96E2,4.4E1,-8.547274E-2,-3.444122E-3,2.8394973E-3,-5.0412428E-2,1.037446E-1,1.4641158E-2],"split_indices":[0,0,2,5,0,0,0,0,0,0,0],"split_type":[0,0,0,0,0,0,0,0,0,0,0],"sum_hessian":[8.796665E1,8.552313E1,2.4435196E0,6.6532814E1,1.8990324E1,1.2661489E0,1.1773705E0,5.7041546E1,9.491265E0,1.7728745E0,1.721745E1],"tree_param":{"num_deleted":"0","num_feature":"8","num_nodes":"11","size_leaf_vector":"1"}},{"base_weights":[-1.3107975E-3,-1.4134845E-1,9.874922E-2,-7.0152335E-2,-8.577495E-2,7.2226775E-1,2.1726019E-3,4.7551515E-3,-5.075329E-2,-1.0909523E-2,1.052653E-1,-1.903943E-2,2.1663142E-2],"categories":[],"categories_nodes":[],"categories_segments":[],"categories_sizes":[],"default_left":[0,0,0,0,0,0,0,0,0,0,0,0,0],"id":58,"left_children":[1,3,5,7,-1,9,11,-1,-1,-1,-1,-1,-1],"loss_changes":[1.2585562E0,1.8488346E0,3.1535037E0,1.8328598E0,0E0,2.0441177E0,1.9562511E0,0E0,0E0,0E0,0E0,0E0,0E0],"parents":[2147483647,0,0,1,1,2,2,3,3,5,5,6,6],"right_children":[2,4,6,8,-1,10,12,-1,-1,-1,-1,-1,-1],"split_conditions":[3.19E-1,2.99E-1,3.74E-1,3.4E1,-8.577495E-2,1.18E2,3.37E1,4.7551515E-3,-5.075329E-2,-1.0909523E-2,1.052653E-1,-1.903943E-2,2.1663142E-2],"split_indices":[3,3,3,7,0,4,1,0,0,0,0,0,0],"split_type":[0,0,0,0,0,0,0,0,0,0,0,0,0],"sum_hessian":[8.782266E1,3.6427876E1,5.1394783E1,3.4133595E1,2.2942817E0,6.023986E0,4.5370796E1,2.7597965E1,6.53563E0,1.9036189E0,4.120367E0,2.3964657E1,2.140614E1],"tree_param":{"num_deleted":"0","num_feature":"8","num_nodes":"13","size_leaf_vector":"1"}},{"base_weights":[-1.5612216E-3,1.9353952E-2,-6.467407E-2,-1.3976959E-2,8.602812E-2,-5.8169547E-3,4.6019696E-2],"categories":[],"categories_nodes":[],"categories_segments":[],"categories_sizes":[],"default_left":[0,0,0,0,0,0,0],"id":59,"left_children":[1,3,-1,5,-1,-1,-1],"loss_changes":[1.2060741E0,2.440566E0,0E0,1.7937976E0,0E0,0E0,0E0],"parents":[2147483647,0,0,1,1,3,3],"right_children":[2,4,-1,6,-1,-1,-1],"split_conditions":[1.441E0,1.182E0,-6.467407E-2,1.67E2,8.602812E-2,-5.8169547E-3,4.6019696E-2],"split_indices":[3,3,0,4,0,0,0],"split_type":[0,0,0,0,0,0,0],"sum_hessian":[8.7450676E1,8.5644295E1,1.8063806E0,8.332501E1,2.319283E0,7.702379E1,6.3012233E0],"tree_param":{"num_deleted":"0","num_feature":"8","num_nodes":"7","size_leaf_vector":"1"}},{"base_weights":[-6.4052024E-4,-3.1669092E-1,4.0789377E-2,-7.221658E-1,1.1955919E-1,5.403908E-1,-6.4460775E-3,-2.1611457E-3,-8.7367274E-2,4.186769E-2,-5.790027E-2,9.231379E-2,2.2272196E-2,-3.4836333E-2,6.323553E-3],"categories":[],"categories_nodes":[],"categories_segments":[],"categories_sizes":[],"default_left":[0,0,0,0,0,0,0,0,0,0,0,0,0,0,0],"id":60,"left_children":[1,3,5,7,9,11,13,-1,-1,-1,-1,-1,-1,-1,-1],"loss_changes":[1.167015E0,1.9134223E0,1.8633325E0,5.643904E-1,1.4613657E0,6.2354875E-1,1.7610743E0,0E0,0E0,0E0,0E0,0E0,0E0,0E0,0E0],"parents":[2147483647,0,0,1,1,2,2,3,3,4,4,5,5,6,6],"right_children":[2,4,6,8,10,12,14,-1,-1,-1,-1,-1,-1,-1,-1],"split_conditions":[2.64E1,1.25E2,5.4E1,2.4E1,2.59E1,2.49E-1,2.5E1,-2.1611457E-3,-8.7367274E-2,4.186769E-2,-5.790027E-2,9.231379E-2,2.2272196E-2,-3.4836333E-2,6.323553E-3],"split_indices":[1,4,2,0,1,3,0,0,0,0,0,0,0,0,0],"split_type":[0,0,0,0,0,0,0,0,0,0,0,0,0,0,0],"sum_hessian":[8.713984E1,9.328999E0,7.7810844E1,4.495365E0,4.833634E0,5.8194227E0,7.199142E1,1.0025066E0,3.4928584E0,3.6649816E0,1.1686522E0,1.7749174E0,4.044505E0,1.1510713E1,6.0480705E1],"tree_param":{"num_deleted":"0","num_feature":"8","num_nodes":"15","size_leaf_vector":"1"}},{"base_weights":[-9.885763E-4,-2.793209E-1,4.8026457E-2,-3.721168E-2,-7.2598666E-1,4.7386006E-1,-4.5075454E-3,6.1887156E-2,-6.5243E-2,5.37722E-2,-1.2342407E-1,-3.2784812E-2,9.437772E-2,-1.3538471E-2,2.3102935E-2],"categories":[],"categories_nodes":[],"categories_segments":[],"categories_sizes":[],"default_left":[0,0,0,0,0,0,0,0,0,0,0,0,0,0,0],"id":61,"left_children":[1,3,5,7,9,11,13,-1,-1,-1,-1,-1,-1,-1,-1],"loss_changes":[1.2110337E0,1.410329E0,1.691011E0,4.308258E0,3.6297188E0,3.4364066E0,2.1334717E0,0E0,0E0,0E0,0E0,0E0,0E0,0E0,0E0],"parents":[2147483647,0,0,1,1,2,2,3,3,4,4,5,5,6,6],"right_children":[2,4,6,8,10,12,14,-1,-1,-1,-1,-1,-1,-1,-1],"split_conditions":[2.03E-1,1.81E-1,2.43E-1,8E0,2.7E1,1.21E2,3.2E1,6.1887156E-2,-6.5243E-2,5.37722E-2,-1.2342407E-1,-3.2784812E-2,9.437772E-2,-1.3538471E-2,2.3102935E-2],"split_indices":[3,3,3,7,0,4,7,0,0,0,0,0,0,0,0],"split_type":[0,0,0,0,0,0,0,0,0,0,0,0,0,0,0],"sum_hessian":[8.678609E1,1.2291278E1,7.449481E1,8.673327E0,3.6179512E0,7.3002114E0,6.71946E1,4.1943917E0,4.4789357E0,1.0211108E0,2.5968404E0,2.8094466E0,4.490765E0,4.346711E1,2.3727491E1],"tree_param":{"num_deleted":"0","num_feature":"8","num_nodes":"15","size_leaf_vector":"1"}},{"base_weights":[-1.0506352E-3,-1.356055E-1,9.487515E-2,-3.1105872E-2,-5.685565E-1,6.8127334E-1,5.403881E-3,8.689779E-3,-4.8491664E-2,2.1998765E-2,-8.765907E-2,2.8657743E-3,1.1078372E-1,-2.9141814E-2,1.3488093E-2],"categories":[],"categories_nodes":[],"categories_segments":[],"categories_sizes":[],"default_left":[0,0,0,0,0,0,0,0,0,0,0,0,0,0,0],"id":62,"left_children":[1,3,5,7,9,11,13,-1,-1,-1,-1,-1,-1,-1,-1],"loss_changes":[1.1418506E0,1.6479924E0,2.706322E0,1.6869987E0,1.9175367E0,1.8695393E0,1.8003596E0,0E0,0E0,0E0,0E0,0E0,0E0,0E0,0E0],"parents":[2147483647,0,0,1,1,2,2,3,3,4,4,5,5,6,6],"right_children":[2,4,6,8,10,12,14,-1,-1,-1,-1,-1,-1,-1,-1],"split_conditions":[3.19E-1,2.8E-1,3.74E-1,3.4E1,1.07E2,1.27E2,5.14E-1,8.689779E-3,-4.8491664E-2,2.1998765E-2,-8.765907E-2,2.8657743E-3,1.1078372E-1,-2.9141814E-2,1.3488093E-2],"split_indices":[3,3,3,7,4,4,3,0,0,0,0,0,0,0,0],"split_type":[0,0,0,0,0,0,0,0,0,0,0,0,0,0,0],"sum_hessian":[8.646885E1,3.5816074E1,5.065277E1,2.9715588E1,6.1004853E0,5.8297734E0,4.4822998E1,2.4224934E1,5.4906545E0,1.7939479E0,4.306537E0,2.726138E0,3.1036353E0,1.3233922E1,3.1589077E1],"tree_param":{"num_deleted":"0","num_feature":"8","num_nodes":"15","size_leaf_vector":"1"}},{"base_weights":[-1.048903E-3,-5.658287E-1,2.1904688E-2,-6.929661E-2,-1.40429055E-2,1.1924188E-1,-1.3073082E-1,3.977034E-2,-1.4996081E-2,-3.1753544E-2,3.4214716E-2],"categories":[],"categories_nodes":[],"categories_segments":[],"categories_sizes":[],"default_left":[0,0,0,0,0,0,0,0,0,0,0],"id":63,"left_children":[1,3,5,-1,-1,7,9,-1,-1,-1,-1],"loss_changes":[1.142076E0,8.876634E-2,1.2740039E0,0E0,0E0,3.975856E0,3.0642657E0,0E0,0E0,0E0,0E0],"parents":[2147483647,0,0,1,1,2,2,5,5,6,6],"right_children":[2,4,6,-1,-1,8,10,-1,-1,-1,-1],"split_conditions":[2.29E1,4E0,7.8E1,-6.929661E-2,-1.40429055E-2,4.9E1,1.42E2,3.977034E-2,-1.4996081E-2,-3.1753544E-2,3.4214716E-2],"split_indices":[1,6,2,0,0,5,5,0,0,0,0],"split_type":[0,0,0,0,0,0,0,0,0,0,0],"sum_hessian":[8.6141754E1,2.440541E0,8.370121E1,1.3947278E0,1.0458132E0,5.124228E1,3.2458935E1,2.4953354E1,2.6288925E1,2.3502905E1,8.956029E0],"tree_param":{"num_deleted":"0","num_feature":"8","num_nodes":"11","size_leaf_vector":"1"}},{"base_weights":[-1.6630846E-3,1.835278E-2,-6.1313804E-2,-1.2829692E-2,8.089693E-2,-5.350919E-3,4.325788E-2],"categories":[],"categories_nodes":[],"categories_segments":[],"categories_sizes":[],"default_left":[0,0,0,0,0,0,0],"id":64,"left_children":[1,3,-1,5,-1,-1,-1],"loss_changes":[1.0767272E0,2.112471E0,0E0,1.5272942E0,0E0,0E0,0E0],"parents":[2147483647,0,0,1,1,3,3],"right_children":[2,4,-1,6,-1,-1,-1],"split_conditions":[1.441E0,1.182E0,-6.1313804E-2,1.67E2,8.089693E-2,-5.350919E-3,4.325788E-2],"split_indices":[3,3,0,4,0,0,0],"split_type":[0,0,0,0,0,0,0],"sum_hessian":[8.6054245E1,8.426589E1,1.7883525E0,8.201494E1,2.2509546E0,7.595754E1,6.0573955E0],"tree_param":{"num_deleted":"0","num_feature":"8","num_nodes":"7","size_leaf_vector":"1"}},{"base_weights":[-7.745352E-4,-2.613578E-1,4.471249E-2,-3.3075154E-2,-6.805568E-1,4.4604877E-1,-4.6455446E-3,5.5533737E-2,-6.065845E-2,4.9101174E-2,-1.175606E-1,-2.9274628E-2,8.7108426E-2,-1.2535974E-2,2.1203281E-2],"categories":[],"categories_nodes":[],"categories_segments":[],"categories_sizes":[],"default_left":[0,0,0,0,0,0,0,0,0,0,0,0,0,0,0],"id":65,"left_children":[1,3,5,7,9,11,13,-1,-1,-1,-1,-1,-1,-1,-1],"loss_changes":[1.0401474E0,1.2254655E0,1.4823288E0,3.5407896E0,3.21431E0,2.8280215E0,1.7929543E0,0E0,0E0,0E0,0E0,0E0,0E0,0E0,0E0],"parents":[2147483647,0,0,1,1,2,2,3,3,4,4,5,5,6,6],"right_children":[2,4,6,8,10,12,14,-1,-1,-1,-1,-1,-1,-1,-1],"split_conditions":[2.03E-1,1.81E-1,2.43E-1,8E0,2.7E1,1.21E2,3.2E1,5.5533737E-2,-6.065845E-2,4.9101174E-2,-1.175606E-1,-2.9274628E-2,8.7108426E-2,-1.2535974E-2,2.1203281E-2],"split_indices":[3,3,3,7,0,4,7,0,0,0,0,0,0,0,0],"split_type":[0,0,0,0,0,0,0,0,0,0,0,0,0,0,0],"sum_hessian":[8.576688E1,1.2041055E1,7.372582E1,8.494251E0,3.5468035E0,7.193947E0,6.6531876E1,4.2082896E0,4.285961E0,1.055959E0,2.4908445E0,2.740925E0,4.453022E0,4.2998386E1,2.3533485E1],"tree_param":{"num_deleted":"0","num_feature":"8","num_nodes":"15","size_leaf_vector":"1"}},{"base_weights":[-9.023179E-4,-5.497784E-1,2.0982979E-2,-6.7482404E-2,-1.37360245E-2,8.244599E-2,-1.9367273E-1,1.4811893E-2,-3.7485242E-2,-4.5991406E-2,3.0160228E-2],"categories":[],"categories_nodes":[],"categories_segments":[],"categories_sizes":[],"default_left":[0,0,0,0,0,0,0,0,0,0,0],"id":66,"left_children":[1,3,5,-1,-1,7,9,-1,-1,-1,-1],"loss_changes":[1.0500723E0,8.016348E-2,1.1255856E0,0E0,0E0,2.040174E0,2.6467202E0,0E0,0E0,0E0,0E0],"parents":[2147483647,0,0,1,1,2,2,5,5,6,6],"right_children":[2,4,6,-1,-1,8,10,-1,-1,-1,-1],"split_conditions":[2.29E1,4E0,8.4E1,-6.7482404E-2,-1.37360245E-2,1.96E2,1.42E2,1.4811893E-2,-3.7485242E-2,-4.5991406E-2,3.0160228E-2],"split_indices":[1,6,2,0,0,5,4,0,0,0,0],"split_type":[0,0,0,0,0,0,0,0,0,0,0],"sum_hessian":[8.5455956E1,2.3518336E0,8.310412E1,1.3164293E0,1.0354043E0,6.508427E1,1.8019855E1,5.7502403E1,7.58186E0,1.1766189E1,6.2536664E0],"tree_param":{"num_deleted":"0","num_feature":"8","num_nodes":"11","size_leaf_vector":"1"}},{"base_weights":[-2.247167E-3,-3.0274585E-1,3.6018997E-2,-6.864967E-1,9.1183454E-2,4.8405054E-1,-6.7646736E-3,-2.8631315E-3,-8.424752E-2,3.6827434E-2,-5.5809706E-2,1.936482E-2,8.2377225E-2,-3.418427E-2,6.1153215E-3],"categories":[],"categories_nodes":[],"categories_segments":[],"categories_sizes":[],"default_left":[0,0,0,0,0,0,0,0,0,0,0,0,0,0,0],"id":67,"left_children":[1,3,5,7,9,11,13,-1,-1,-1,-1,-1,-1,-1,-1],"loss_changes":[1.0042814E0,1.5538354E0,1.4892884E0,5.006521E-1,1.2401025E0,5.085211E-1,1.6538347E0,0E0,0E0,0E0,0E0,0E0,0E0,0E0,0E0],"parents":[2147483647,0,0,1,1,2,2,3,3,4,4,5,5,6,6],"right_children":[2,4,6,8,10,12,14,-1,-1,-1,-1,-1,-1,-1,-1],"split_conditions":[2.64E1,1.25E2,5.4E1,2.5E1,2.59E1,1.3E2,2.5E1,-2.8631315E-3,-8.424752E-2,3.6827434E-2,-5.5809706E-2,1.936482E-2,8.2377225E-2,-3.418427E-2,6.1153215E-3],"split_indices":[1,4,2,0,1,4,0,0,0,0,0,0,0,0,0],"split_type":[0,0,0,0,0,0,0,0,0,0,0,0,0,0,0],"sum_hessian":[8.538861E1,8.8646E0,7.652401E1,4.114106E0,4.750494E0,5.771441E0,7.075257E1,1.0153326E0,3.0987735E0,3.6328945E0,1.1175996E0,3.9580362E0,1.813405E0,1.1244384E1,5.9508186E1],"tree_param":{"num_deleted":"0","num_feature":"8","num_nodes":"15","size_leaf_vector":"1"}},{"base_weights":[-2.5313166E-3,-1.3216887E-1,8.9505635E-2,-6.6974424E-2,-7.810491E-2,5.916965E-1,-3.8604012E-3,1.11689E-2,-2.8035661E-2,8.002197E-2,-3.8306884E-2,-8.8554084E-2,4.4506094E-3],"categories":[],"categories_nodes":[],"categories_segments":[],"categories_sizes":[],"default_left":[0,0,0,0,0,0,0,0,0,0,0,0,0],"id":68,"left_children":[1,3,5,7,-1,9,11,-1,-1,-1,-1,-1,-1],"loss_changes":[1.037843E0,1.4751341E0,2.3881798E0,1.3238614E0,0E0,1.9293449E0,1.9115434E0,0E0,0E0,0E0,0E0,0E0,0E0],"parents":[2147483647,0,0,1,1,2,2,3,3,5,5,6,6],"right_children":[2,4,6,8,-1,10,12,-1,-1,-1,-1,-1,-1],"split_conditions":[3.19E-1,2.99E-1,3.85E-1,7.6E1,-7.810491E-2,7E0,3.95E-1,1.11689E-2,-2.8035661E-2,8.002197E-2,-3.8306884E-2,-8.8554084E-2,4.4506094E-3],"split_indices":[3,3,3,2,0,6,3,0,0,0,0,0,0],"split_type":[0,0,0,0,0,0,0,0,0,0,0,0,0],"sum_hessian":[8.499236E1,3.5106903E1,4.9885456E1,3.2904163E1,2.20274E0,6.9838443E0,4.290161E1,1.8168436E1,1.4735726E1,5.900636E0,1.083208E0,1.3309289E0,4.1570683E1],"tree_param":{"num_deleted":"0","num_feature":"8","num_nodes":"13","size_leaf_vector":"1"}},{"base_weights":[-3.9240913E-3,1.5327429E-2,-5.8808435E-2,-1.3890832E-2,7.609158E-2,-9.298011E-3,2.2668827E-2],"categories":[],"categories_nodes":[],"categories_segments":[],"categories_sizes":[],"default_left":[0,0,0,0,0,0,0],"id":69,"left_children":[1,3,-1,5,-1,-1,-1],"loss_changes":[9.747675E-1,1.8428952E0,0E0,1.5797979E0,0E0,0E0,0E0],"parents":[2147483647,0,0,1,1,3,3],"right_children":[2,4,-1,6,-1,-1,-1],"split_conditions":[1.441E0,1.182E0,-5.8808435E-2,4.3E1,7.609158E-2,-9.298011E-3,2.2668827E-2],"split_indices":[3,3,0,0,0,0,0],"split_type":[0,0,0,0,0,0,0],"sum_hessian":[8.48755E1,8.311029E1,1.7652118E0,8.0920525E1,2.1897602E0,6.1361675E1,1.9558853E1],"tree_param":{"num_deleted":"0","num_feature":"8","num_nodes":"7","size_leaf_vector":"1"}},{"base_weights":[-3.1572252E-3,-1.6369206E-1,6.826834E-2,-3.3829957E-1,1.3592789E-1,3.3005854E-1,-2.8027914E-2,-4.745799E-2,3.062579E-2,6.335001E-2,-5.2057065E-2,-8.765314E-3,5.0619077E-2,-8.115097E-3,5.384151E-2],"categories":[],"categories_nodes":[],"categories_segments":[],"categories_sizes":[],"default_left":[0,0,0,0,0,0,0,0,0,0,0,0,0,0,0],"id":70,"left_children":[1,3,5,7,9,11,13,-1,-1,-1,-1,-1,-1,-1,-1],"loss_changes":[9.933756E-1,1.4412913E0,1.5215391E0,1.6507031E0,3.7705696E0,1.237013E0,1.3911331E0,0E0,0E0,0E0,0E0,0E0,0E0,0E0,0E0],"parents":[2147483647,0,0,1,1,2,2,3,3,4,4,5,5,6,6],"right_children":[2,4,6,8,10,12,14,-1,-1,-1,-1,-1,-1,-1,-1],"split_conditions":[3.04E1,4.1E1,6.8E1,7E0,5.5E1,1.07E2,5.2E1,-4.745799E-2,3.062579E-2,6.335001E-2,-5.2057065E-2,-8.765314E-3,5.0619077E-2,-8.115097E-3,5.384151E-2],"split_indices":[1,0,2,6,0,4,0,0,0,0,0,0,0,0,0],"split_type":[0,0,0,0,0,0,0,0,0,0,0,0,0,0,0],"sum_hessian":[8.4659836E1,2.5670803E1,5.8989033E1,1.6137415E1,9.533389E0,1.5210463E1,4.3778572E1,1.3538624E1,2.5987916E0,5.4430413E0,4.0903473E0,4.660369E0,1.0550094E1,4.080817E1,2.9704006E0],"tree_param":{"num_deleted":"0","num_feature":"8","num_nodes":"15","size_leaf_vector":"1"}},{"base_weights":[-1.9759324E-3,-2.5578895E-1,4.1930903E-2,-4.3499473E-2,-6.4144945E-1,-1.36567615E-2,3.70238E-1,4.950246E-2,-5.773553E-2,4.71926E-2,-1.13321714E-1,2.5868225E-3,-8.5520685E-2,8.308481E-2,1.2586009E-3],"categories":[],"categories_nodes":[],"categories_segments":[],"categories_sizes":[],"default_left":[0,0,0,0,0,0,0,0,0,0,0,0,0,0,0],"id":71,"left_children":[1,3,5,7,9,11,13,-1,-1,-1,-1,-1,-1,-1,-1],"loss_changes":[9.601013E-1,1.0122364E0,1.3461661E0,2.9499526E0,2.964543E0,2.1445825E0,1.7483392E0,0E0,0E0,0E0,0E0,0E0,0E0,0E0,0E0],"parents":[2147483647,0,0,1,1,2,2,3,3,4,4,5,5,6,6],"right_children":[2,4,6,8,10,12,14,-1,-1,-1,-1,-1,-1,-1,-1],"split_conditions":[2.03E-1,1.81E-1,4.09E1,8E0,2.7E1,4E1,1.8E1,4.950246E-2,-5.773553E-2,4.71926E-2,-1.13321714E-1,2.5868225E-3,-8.5520685E-2,8.308481E-2,1.2586009E-3],"split_indices":[3,3,1,7,0,1,5,0,0,0,0,0,0,0,0],"split_type":[0,0,0,0,0,0,0,0,0,0,0,0,0,0,0],"sum_hessian":[8.419068E1,1.1704507E1,7.2486176E1,8.2667885E0,3.4377186E0,6.280986E1,9.676315E0,4.151611E0,4.1151776E0,1.065575E0,2.3721437E0,6.091799E1,1.8918669E0,3.651101E0,6.025214E0],"tree_param":{"num_deleted":"0","num_feature":"8","num_nodes":"15","size_leaf_vector":"1"}},{"base_weights":[-2.7205183E-3,1.7534861E-2,-5.2214867E-1,-5.0860405E-2,2.4607843E-1,-7.476479E-2,-5.2719656E-3,2.619744E-3,-4.7247674E-2,9.947126E-2,1.1753114E-2],"categories":[],"categories_nodes":[],"categories_segments":[],"categories_sizes":[],"default_left":[0,0,0,0,0,0,0,0,0,0,0],"id":72,"left_children":[1,3,5,7,9,-1,-1,-1,-1,-1,-1],"loss_changes":[9.026251E-1,1.3052397E0,3.014118E-1,2.107285E0,1.7327423E0,0E0,0E0,0E0,0E0,0E0,0E0],"parents":[2147483647,0,0,1,1,2,2,3,3,4,4],"right_children":[2,4,6,8,10,-1,-1,-1,-1,-1,-1],"split_conditions":[6.3E1,4.3E1,8.2E1,1.96E2,4.4E1,-7.476479E-2,-5.2719656E-3,2.619744E-3,-4.7247674E-2,9.947126E-2,1.1753114E-2],"split_indices":[0,0,2,5,0,0,0,0,0,0,0],"split_type":[0,0,0,0,0,0,0,0,0,0,0],"sum_hessian":[8.392073E1,8.1701004E1,2.2197323E0,6.3480824E1,1.8220179E1,1.099089E0,1.1206433E0,5.4464363E1,9.016462E0,1.6826499E0,1.6537529E1],"tree_param":{"num_deleted":"0","num_feature":"8","num_nodes":"11","size_leaf_vector":"1"}},{"base_weights":[-2.611997E-3,-3.1408617E-1,3.1237813E-2,-9.021563E-2,3.754363E-1,-6.013515E-2,1.824135E-1,1.0226518E-1,-2.4866803E-2,3.267939E-3,-5.381738E-2,3.376858E-3,6.898128E-2],"categories":[],"categories_nodes":[],"categories_segments":[],"categories_sizes":[],"default_left":[0,0,0,0,0,0,0,0,0,0,0,0,0],"id":73,"left_children":[1,3,5,-1,7,9,11,-1,-1,-1,-1,-1,-1],"loss_changes":[9.03692E-1,3.745215E0,1.0798551E0,0E0,2.10151E0,2.190857E0,2.1940262E0,0E0,0E0,0E0,0E0,0E0,0E0],"parents":[2147483647,0,0,1,1,2,2,4,4,5,5,6,6],"right_children":[2,4,6,-1,8,10,12,-1,-1,-1,-1,-1,-1],"split_conditions":[9.3E1,3.1E1,5.14E-1,-9.021563E-2,1.4E1,4.15E-1,8E0,1.0226518E-1,-2.4866803E-2,3.267939E-3,-5.381738E-2,3.376858E-3,6.898128E-2],"split_indices":[4,7,3,0,5,3,6,0,0,0,0,0,0],"split_type":[0,0,0,0,0,0,0,0,0,0,0,0,0],"sum_hessian":[8.378154E1,7.4010286E0,7.638051E1,3.8279352E0,3.5730932E0,4.7981785E1,2.8398726E1,1.440578E0,2.1325152E0,4.096063E1,7.0211535E0,2.2789104E1,5.60962E0],"tree_param":{"num_deleted":"0","num_feature":"8","num_nodes":"13","size_leaf_vector":"1"}},{"base_weights":[-2.3984506E-3,-2.1053215E-2,5.722769E-2,-3.734923E-1,1.5984986E-2,-8.802345E-2,2.4690494E-2,2.1396806E-2,-6.3770576E-3],"categories":[],"categories_nodes":[],"categories_segments":[],"categories_sizes":[],"default_left":[0,0,0,0,0,0,0,0,0],"id":74,"left_children":[1,3,-1,5,7,-1,-1,-1,-1],"loss_changes":[9.164761E-1,1.0852101E0,0E0,2.7020104E0,1.2101272E0,0E0,0E0,0E0,0E0],"parents":[2147483647,0,0,1,1,3,3,4,4],"right_children":[2,4,-1,6,8,-1,-1,-1,-1],"split_conditions":[4.83E1,9.3E1,5.722769E-2,3.1E1,6.8E1,-8.802345E-2,2.4690494E-2,2.1396806E-2,-6.3770576E-3],"split_indices":[1,4,0,7,2,0,0,0,0],"split_type":[0,0,0,0,0,0,0,0,0],"sum_hessian":[8.3364845E1,8.1676865E1,1.6879802E0,6.9033813E0,7.477348E1,3.5692139E0,3.3341672E0,2.0988758E1,5.3784725E1],"tree_param":{"num_deleted":"0","num_feature":"8","num_nodes":"9","size_leaf_vector":"1"}},{"base_weights":[-2.1948572E-3,-1.23692594E-1,8.4155954E-2,-6.2024444E-2,-7.4154906E-2,5.9441423E-1,6.9281645E-3,-1.0553603E-2,6.339957E-2,-2.2576943E-3,1.037567E-1,-1.5758557E-2,1.8547604E-2],"categories":[],"categories_nodes":[],"categories_segments":[],"categories_sizes":[],"default_left":[0,0,0,0,0,0,0,0,0,0,0,0,0],"id":75,"left_children":[1,3,5,7,-1,9,11,-1,-1,-1,-1,-1,-1],"loss_changes":[8.939312E-1,1.3024957E0,1.9591798E0,1.074518E0,0E0,1.8109338E0,1.3300253E0,0E0,0E0,0E0,0E0,0E0,0E0],"parents":[2147483647,0,0,1,1,2,2,3,3,5,5,6,6],"right_children":[2,4,6,8,-1,10,12,-1,-1,-1,-1,-1,-1],"split_conditions":[3.19E-1,2.99E-1,3.74E-1,1.81E2,-7.4154906E-2,1.27E2,3.37E1,-1.0553603E-2,6.339957E-2,-2.2576943E-3,1.037567E-1,-1.5758557E-2,1.8547604E-2],"split_indices":[3,3,3,4,0,4,1,0,0,0,0,0,0],"split_type":[0,0,0,0,0,0,0,0,0,0,0,0,0],"sum_hessian":[8.321367E1,3.4391514E1,4.8822155E1,3.2270943E1,2.120571E0,5.537563E0,4.3284595E1,3.1170683E1,1.1002582E0,2.711483E0,2.8260798E0,2.2588755E1,2.0695839E1],"tree_param":{"num_deleted":"0","num_feature":"8","num_nodes":"13","size_leaf_vector":"1"}},{"base_weights":[-9.32445E-4,1.7569711E-2,-5.5522364E-2,-9.647835E-3,7.13652E-2,-4.662683E-3,4.026124E-2],"categories":[],"categories_nodes":[],"categories_segments":[],"categories_sizes":[],"default_left":[0,0,0,0,0,0,0],"id":76,"left_children":[1,3,-1,5,-1,-1,-1],"loss_changes":[8.6981976E-1,1.562768E0,0E0,1.2386729E0,0E0,0E0,0E0],"parents":[2147483647,0,0,1,1,3,3],"right_children":[2,4,-1,6,-1,-1,-1],"split_conditions":[1.441E0,1.182E0,-5.5522364E-2,1.67E2,7.13652E-2,-4.662683E-3,4.026124E-2],"split_indices":[3,3,0,4,0,0,0],"split_type":[0,0,0,0,0,0,0],"sum_hessian":[8.286307E1,8.1123474E1,1.739587E0,7.901986E1,2.1036193E0,7.3329254E1,5.690602E0],"tree_param":{"num_deleted":"0","num_feature":"8","num_nodes":"7","size_leaf_vector":"1"}},{"base_weights":[-1.7113079E-4,-5.1050007E-2,1.9646201E-2,7.57112E-2,-1.7668201E-1,2.4244692E-2,-8.876814E-3,-3.496556E-2,4.5913886E-2],"categories":[],"categories_nodes":[],"categories_segments":[],"categories_sizes":[],"default_left":[0,0,0,0,0,0,0,0,0],"id":77,"left_children":[1,-1,3,5,7,-1,-1,-1,-1],"loss_changes":[8.556128E-1,0E0,9.098871E-1,1.7782233E0,2.1833315E0,0E0,0E0,0E0,0E0],"parents":[2147483647,0,0,2,2,3,3,4,4],"right_children":[2,-1,4,6,8,-1,-1,-1,-1],"split_conditions":[2.29E1,-5.1050007E-2,8.4E1,1.8E1,4.27E1,2.4244692E-2,-8.876814E-3,-3.496556E-2,4.5913886E-2],"split_indices":[1,0,2,5,1,0,0,0,0],"split_type":[0,0,0,0,0,0,0,0,0],"sum_hessian":[8.261056E1,2.1624942E0,8.044807E1,6.3055744E1,1.7392319E1,3.1077692E1,3.1978054E1,1.4026512E1,3.3658075E0],"tree_param":{"num_deleted":"0","num_feature":"8","num_nodes":"9","size_leaf_vector":"1"}},{"base_weights":[-4.8428698E-4,-2.4570337E-1,4.152822E-2,-4.897111E-2,-5.9863037E-1,4.1243106E-1,-4.4146096E-3,4.494151E-2,-5.514252E-2,4.366177E-2,-1.0798279E-1,-2.8197063E-2,8.152125E-2,-2.517086E-2,7.953791E-3],"categories":[],"categories_nodes":[],"categories_segments":[],"categories_sizes":[],"default_left":[0,0,0,0,0,0,0,0,0,0,0,0,0,0,0],"id":78,"left_children":[1,3,5,7,9,11,13,-1,-1,-1,-1,-1,-1,-1,-1],"loss_changes":[8.70941E-1,8.292087E-1,1.2318491E0,2.5086808E0,2.6317513E0,2.457981E0,1.3739887E0,0E0,0E0,0E0,0E0,0E0,0E0,0E0,0E0],"parents":[2147483647,0,0,1,1,2,2,3,3,4,4,5,5,6,6],"right_children":[2,4,6,8,10,12,14,-1,-1,-1,-1,-1,-1,-1,-1],"split_conditions":[2.03E-1,1.81E-1,2.43E-1,8E0,2.7E1,1.21E2,3.19E-1,4.494151E-2,-5.514252E-2,4.366177E-2,-1.0798279E-1,-2.8197063E-2,8.152125E-2,-2.517086E-2,7.953791E-3],"split_indices":[3,3,3,7,0,4,3,0,0,0,0,0,0,0,0],"split_type":[0,0,0,0,0,0,0,0,0,0,0,0,0,0,0],"sum_hessian":[8.2548325E1,1.1364945E1,7.118338E1,8.028418E0,3.3365278E0,6.966314E0,6.4217064E1,4.0835195E0,3.9448986E0,1.0881424E0,2.2483854E0,2.6674788E0,4.2988353E0,1.5769006E1,4.844806E1],"tree_param":{"num_deleted":"0","num_feature":"8","num_nodes":"15","size_leaf_vector":"1"}},{"base_weights":[-1.0071574E-3,-2.8079352E-1,3.352721E-2,-6.476073E-1,8.113029E-2,5.0936985E-1,-4.594965E-3,-4.8175836E-3,-8.016253E-2,3.5370063E-2,-5.5634614E-2,1.2820745E-2,9.32548E-2,-3.376693E-2,6.2624323E-3],"categories":[],"categories_nodes":[],"categories_segments":[],"categories_sizes":[],"default_left":[0,0,0,0,0,0,0,0,0,0,0,0,0,0,0],"id":79,"left_children":[1,3,5,7,9,11,13,-1,-1,-1,-1,-1,-1,-1,-1],"loss_changes":[8.138485E-1,1.2810793E0,1.3628795E0,3.959689E-1,1.1605555E0,7.792027E-1,1.5979936E0,0E0,0E0,0E0,0E0,0E0,0E0,0E0,0E0],"parents":[2147483647,0,0,1,1,2,2,3,3,4,4,5,5,6,6],"right_children":[2,4,6,8,10,12,14,-1,-1,-1,-1,-1,-1,-1,-1],"split_conditions":[2.64E1,1.25E2,5.2E1,2.3E1,2.59E1,8.6E1,2.5E1,-4.8175836E-3,-8.016253E-2,3.5370063E-2,-5.5634614E-2,1.2820745E-2,9.32548E-2,-3.376693E-2,6.2624323E-3],"split_indices":[1,4,2,1,1,5,0,0,0,0,0,0,0,0,0],"split_type":[0,0,0,0,0,0,0,0,0,0,0,0,0,0,0],"sum_hessian":[8.2255424E1,8.253925E0,7.4001495E1,3.7072444E0,4.546681E0,4.572006E0,6.942949E1,1.0261816E0,2.681063E0,3.496719E0,1.049962E0,3.0909278E0,1.4810781E0,1.0983316E1,5.844618E1],"tree_param":{"num_deleted":"0","num_feature":"8","num_nodes":"15","size_leaf_vector":"1"}},{"base_weights":[-1.3628134E-3,-5.033998E-2,1.7969495E-2,3.6492728E-2,-5.2958317E-2,1.0993247E-3,6.698657E-2],"categories":[],"categories_nodes":[],"categories_segments":[],"categories_sizes":[],"default_left":[0,0,0,0,0,0,0],"id":80,"left_children":[1,-1,3,5,-1,-1,-1],"loss_changes":[8.1395113E-1,0E0,8.390689E-1,1.2703784E0,0E0,0E0,0E0],"parents":[2147483647,0,0,2,2,3,3],"right_children":[2,-1,4,6,-1,-1,-1],"split_conditions":[2.29E1,-5.033998E-2,1.441E0,1.182E0,-5.2958317E-2,1.0993247E-3,6.698657E-2],"split_indices":[1,0,3,3,0,0,0],"split_type":[0,0,0,0,0,0,0],"sum_hessian":[8.193262E1,2.109597E0,7.982302E1,7.8113846E1,1.7091707E0,7.6068695E1,2.0451548E0],"tree_param":{"num_deleted":"0","num_feature":"8","num_nodes":"7","size_leaf_vector":"1"}},{"base_weights":[-1.6518426E-3,-2.3227641E-1,3.741798E-2,-5.949268E-1,-5.814358E-2,3.8345864E-1,-5.1729456E-3,-1.3713956E-2,-7.674012E-2,3.1076143E-2,-5.038656E-2,-2.5829813E-2,7.499117E-2,-5.9965808E-2,2.7836964E-3],"categories":[],"categories_nodes":[],"categories_segments":[],"categories_sizes":[],"default_left":[0,0,0,0,0,0,0,0,0,0,0,0,0,0,0],"id":81,"left_children":[1,3,5,7,9,11,13,-1,-1,-1,-1,-1,-1,-1,-1],"loss_changes":[7.5497276E-1,7.318646E-1,1.058516E0,1.9708323E-1,1.6871204E0,2.0444245E0,1.2886568E0,0E0,0E0,0E0,0E0,0E0,0E0,0E0,0E0],"parents":[2147483647,0,0,1,1,2,2,3,3,4,4,5,5,6,6],"right_children":[2,4,6,8,10,12,14,-1,-1,-1,-1,-1,-1,-1,-1],"split_conditions":[2.03E-1,2.93E1,2.43E-1,2.52E1,3.44E1,1.21E2,2.54E-1,-1.3713956E-2,-7.674012E-2,3.1076143E-2,-5.038656E-2,-2.5829813E-2,7.499117E-2,-5.9965808E-2,2.7836964E-3],"split_indices":[3,1,3,1,1,4,3,0,0,0,0,0,0,0,0],"split_type":[0,0,0,0,0,0,0,0,0,0,0,0,0,0,0],"sum_hessian":[8.182389E1,1.1137194E1,7.06867E1,2.8289955E0,8.308199E0,6.8696027E0,6.3817097E1,1.2654164E0,1.563579E0,4.7114906E0,3.596708E0,2.604162E0,4.2654405E0,2.4541204E0,6.1362976E1],"tree_param":{"num_deleted":"0","num_feature":"8","num_nodes":"15","size_leaf_vector":"1"}},{"base_weights":[-2.9795477E-3,1.5698155E-2,-4.8976848E-1,-2.721713E-2,3.489532E-1,-7.107603E-2,-3.702166E-3,-9.9742925E-3,2.1634752E-2,8.025991E-2,-1.4623185E-2],"categories":[],"categories_nodes":[],"categories_segments":[],"categories_sizes":[],"default_left":[0,0,0,0,0,0,0,0,0,0,0],"id":82,"left_children":[1,3,5,7,9,-1,-1,-1,-1,-1,-1],"loss_changes":[7.590973E-1,1.1616349E0,2.823385E-1,1.2986736E0,2.1981792E0,0E0,0E0,0E0,0E0,0E0,0E0],"parents":[2147483647,0,0,1,1,2,2,3,3,4,4],"right_children":[2,4,6,8,10,-1,-1,-1,-1,-1,-1],"split_conditions":[6.3E1,5E1,8.2E1,7E0,7E0,-7.107603E-2,-3.702166E-3,-9.9742925E-3,2.1634752E-2,8.025991E-2,-1.4623185E-2],"split_indices":[0,0,2,6,6,0,0,0,0,0,0],"split_type":[0,0,0,0,0,0,0,0,0,0,0],"sum_hessian":[8.164416E1,7.955928E1,2.0848746E0,7.129634E1,8.262936E0,1.0180608E0,1.0668138E0,5.5392662E1,1.5903683E1,3.9883482E0,4.2745876E0],"tree_param":{"num_deleted":"0","num_feature":"8","num_nodes":"11","size_leaf_vector":"1"}},{"base_weights":[-2.6469575E-3,-4.856878E-2,1.559862E-2,4.5210302E-1,-7.2770896E-3,7.78408E-2,-8.542284E-3,1.3106524E-3,-6.1169405E-2],"categories":[],"categories_nodes":[],"categories_segments":[],"categories_sizes":[],"default_left":[0,0,0,0,0,0,0,0,0],"id":83,"left_children":[1,-1,3,5,7,-1,-1,-1,-1],"loss_changes":[7.338454E-1,0E0,8.058629E-1,7.712876E-1,9.610682E-1,0E0,0E0,0E0,0E0],"parents":[2147483647,0,0,2,2,3,3,4,4],"right_children":[2,-1,4,6,8,-1,-1,-1,-1],"split_conditions":[2.29E1,-4.856878E-2,4.4E1,3E1,1.441E0,7.78408E-2,-8.542284E-3,1.3106524E-3,-6.1169405E-2],"split_indices":[1,0,2,0,3,0,0,0,0],"split_type":[0,0,0,0,0,0,0,0,0],"sum_hessian":[8.1405525E1,2.0304732E0,7.937505E1,3.01827E0,7.635678E1,1.5992904E0,1.4189796E0,7.48121E1,1.5446796E0],"tree_param":{"num_deleted":"0","num_feature":"8","num_nodes":"9","size_leaf_vector":"1"}},{"base_weights":[-2.8731718E-3,-5.0975412E-2,1.4544781E-2,3.3063244E-2,-4.685863E-1,-2.9438296E-3,2.141473E-2,-6.600239E-2,-4.6275347E-3],"categories":[],"categories_nodes":[],"categories_segments":[],"categories_sizes":[],"default_left":[0,0,0,0,0,0,0,0,0],"id":84,"left_children":[1,-1,3,5,7,-1,-1,-1,-1],"loss_changes":[7.343581E-1,0E0,7.363797E-1,8.9515543E-1,2.1525586E-1,0E0,0E0,0E0,0E0],"parents":[2147483647,0,0,2,2,3,3,4,4],"right_children":[2,-1,4,6,8,-1,-1,-1,-1],"split_conditions":[1.27E-1,-5.0975412E-2,6.3E1,4.2E1,2.79E1,-2.9438296E-3,2.141473E-2,-6.600239E-2,-4.6275347E-3],"split_indices":[3,0,0,0,1,0,0,0,0],"split_type":[0,0,0,0,0,0,0,0,0],"sum_hessian":[8.133752E1,1.7631108E0,7.957441E1,7.753409E1,2.0403242E0,5.82622E1,1.9271887E1,1.0166024E0,1.0237218E0],"tree_param":{"num_deleted":"0","num_feature":"8","num_nodes":"9","size_leaf_vector":"1"}},{"base_weights":[-3.8678905E-3,-2.0445487E-2,5.040414E-2,-3.510659E-1,1.391185E-2,-8.59503E-2,2.313791E-2,-8.0009E-3,1.6628891E-2],"categories":[],"categories_nodes":[],"categories_segments":[],"categories_sizes":[],"default_left":[0,0,0,0,0,0,0,0,0],"id":85,"left_children":[1,3,-1,5,7,-1,-1,-1,-1],"loss_changes":[7.022677E-1,9.19815E-1,0E0,2.4555106E0,1.0712713E0,0E0,0E0,0E0,0E0],"parents":[2147483647,0,0,1,1,3,3,4,4],"right_children":[2,4,-1,6,8,-1,-1,-1,-1],"split_conditions":[4.83E1,9.3E1,5.040414E-2,3.1E1,5.14E-1,-8.59503E-2,2.313791E-2,-8.0009E-3,1.6628891E-2],"split_indices":[1,4,0,7,3,0,0,0,0],"split_type":[0,0,0,0,0,0,0,0,0],"sum_hessian":[8.118163E1,7.954511E1,1.6365187E0,6.620266E0,7.292485E1,3.2807238E0,3.3395422E0,4.541022E1,2.751463E1],"tree_param":{"num_deleted":"0","num_feature":"8","num_nodes":"9","size_leaf_vector":"1"}},{"base_weights":[-3.6554819E-3,-3.257611E-2,2.8324282E-1,1.3042359E-2,-3.551199E-1,-1.8509203E-1,6.007779E-1,-4.571752E-3,3.8789403E-2,-6.135446E-2,7.6220065E-2,-6.381459E-2,3.4396097E-2,8.674665E-2,-1.587194E-2],"categories":[],"categories_nodes":[],"categories_segments":[],"categories_sizes":[],"default_left":[0,0,0,0,0,0,0,0,0,0,0,0,0,0,0],"id":86,"left_children":[1,3,5,7,9,11,13,-1,-1,-1,-1,-1,-1,-1,-1],"loss_changes":[6.8894476E-1,1.1128229E0,1.2421443E0,1.4923456E0,3.172499E0,1.139252E0,1.1033618E0,0E0,0E0,0E0,0E0,0E0,0E0,0E0,0E0],"parents":[2147483647,0,0,1,1,2,2,3,3,4,4,5,5,6,6],"right_children":[2,4,6,8,10,12,14,-1,-1,-1,-1,-1,-1,-1,-1],"split_conditions":[1.67E2,1.96E2,7.2E1,1.44E2,4.3E1,2.6E1,4.4E1,-4.571752E-3,3.8789403E-2,-6.135446E-2,7.6220065E-2,-6.381459E-2,3.4396097E-2,8.674665E-2,-1.587194E-2],"split_indices":[4,5,2,5,0,7,0,0,0,0,0,0,0,0,0],"split_type":[0,0,0,0,0,0,0,0,0,0,0,0,0,0,0],"sum_hessian":[8.092056E1,7.431567E1,6.6048965E0,6.594798E1,8.367684E0,2.8372757E0,3.7676208E0,5.7770245E1,8.177738E0,7.1620536E0,1.2056304E0,1.4173371E0,1.4199387E0,2.6832652E0,1.0843555E0],"tree_param":{"num_deleted":"0","num_feature":"8","num_nodes":"15","size_leaf_vector":"1"}},{"base_weights":[-2.1174266E-3,1.6735105E-2,-4.648066E-1,-8.633534E-3,8.210376E-2,2.278157E-2,-9.846969E-2,-4.1413675E-3,3.6785442E-2],"categories":[],"categories_nodes":[],"categories_segments":[],"categories_sizes":[],"default_left":[0,0,0,0,0,0,0,0,0],"id":87,"left_children":[1,3,5,7,-1,-1,-1,-1,-1],"loss_changes":[7.191024E-1,1.6255325E0,1.3864582E0,9.764257E-1,0E0,0E0,0E0,0E0,0E0],"parents":[2147483647,0,0,1,1,2,2,3,3],"right_children":[2,4,6,8,-1,-1,-1,-1,-1],"split_conditions":[1.391E0,1.182E0,3.4E1,1.67E2,8.210376E-2,2.278157E-2,-9.846969E-2,-4.1413675E-3,3.6785442E-2],"split_indices":[3,3,0,4,0,0,0,0,0],"split_type":[0,0,0,0,0,0,0,0,0],"sum_hessian":[8.054706E1,7.831971E1,2.22735E0,7.6883965E1,1.4357443E0,1.195907E0,1.0314431E0,7.154469E1,5.3392696E0],"tree_param":{"num_deleted":"0","num_feature":"8","num_nodes":"9","size_leaf_vector":"1"}},{"base_weights":[-1.3847987E-3,3.92802E-1,-2.2039615E-2,6.81523E-2,-8.601188E-3,-1.1280266E-3,-5.386121E-1,-2.6346908E-3,7.916218E-2,1.2952558E-2,-9.409716E-2],"categories":[],"categories_nodes":[],"categories_segments":[],"categories_sizes":[],"default_left":[0,0,0,0,0,0,0,0,0,0,0],"id":88,"left_children":[1,3,5,-1,-1,7,9,-1,-1,-1,-1],"loss_changes":[6.705761E-1,6.255478E-1,8.441076E-1,0E0,0E0,1.5434089E0,9.392031E-1,0E0,0E0,0E0,0E0],"parents":[2147483647,0,0,1,1,2,2,5,5,6,6],"right_children":[2,4,6,-1,-1,8,10,-1,-1,-1,-1],"split_conditions":[4.4E1,3E1,1.391E0,6.81523E-2,-8.601188E-3,1.182E0,3.2E1,-2.6346908E-3,7.916218E-2,1.2952558E-2,-9.409716E-2],"split_indices":[2,0,3,0,0,3,0,0,0,0,0],"split_type":[0,0,0,0,0,0,0,0,0,0,0],"sum_hessian":[8.029829E1,3.1009402E0,7.719734E1,1.670366E0,1.430574E0,7.515706E1,2.0402808E0,7.377685E1,1.3802168E0,1.021731E0,1.0185499E0],"tree_param":{"num_deleted":"0","num_feature":"8","num_nodes":"11","size_leaf_vector":"1"}},{"base_weights":[-5.508576E-4,-2.6235697E-1,3.0645194E-2,-6.097941E-1,6.883247E-2,7.533061E-2,9.871059E-3,-4.6135704E-3,-7.676244E-2,3.4217108E-2,-4.6457842E-2,4.2249873E-2,-2.922387E-3],"categories":[],"categories_nodes":[],"categories_segments":[],"categories_sizes":[],"default_left":[0,0,0,0,0,0,0,0,0,0,0,0,0],"id":89,"left_children":[1,3,5,7,9,-1,11,-1,-1,-1,-1,-1,-1],"loss_changes":[6.711478E-1,1.0486951E0,1.0951152E0,3.534552E-1,9.430563E-1,0E0,1.1803191E0,0E0,0E0,0E0,0E0,0E0,0E0],"parents":[2147483647,0,0,1,1,2,2,3,3,4,4,6,6],"right_children":[2,4,6,8,10,-1,12,-1,-1,-1,-1,-1,-1],"split_conditions":[2.64E1,1.25E2,2.68E1,2.31E1,4.52E-1,7.533061E-2,5.4E1,-4.6135704E-3,-7.676244E-2,3.4217108E-2,-4.6457842E-2,4.2249873E-2,-2.922387E-3],"split_indices":[1,4,1,1,3,0,2,0,0,0,0,0,0],"split_type":[0,0,0,0,0,0,0,0,0,0,0,0,0],"sum_hessian":[8.019041E1,7.7489643E0,7.2441444E1,3.3711774E0,4.377787E0,1.0389292E0,7.140252E1,1.0201683E0,2.3510091E0,3.1315782E0,1.2462089E0,5.330866E0,6.607165E1],"tree_param":{"num_deleted":"0","num_feature":"8","num_nodes":"13","size_leaf_vector":"1"}},{"base_weights":[-3.348772E-4,-2.2113541E-1,3.6604106E-2,1.8788444E-1,-3.5653836E-1,4.3456575E-1,3.6370698E-3,-2.0343488E-2,4.8298724E-2,